Language model created by QuickLM on Fri Apr 27 11:11:25 EDT 2018
Copyright (c) 1996-2010 Carnegie Mellon University and Alexander I. Rudnicky

The model is in standard ARPA format, designed by Doug Paul while he was at MITRE.

The code that was used to produce this language model is available in Open Source.
Please visit http://www.speech.cs.cmu.edu/tools/ for more information

The (fixed) discount mass is 0.5. The backoffs are computed using the ratio method.
This model based on a corpus of 1447 sentences and 119 words

\data\
ngram 1=119
ngram 2=561
ngram 3=1236

\1-grams:
-1.2013 </s> -0.3010
-1.2013 <s> -0.2225
-2.1743 A -0.2980
-3.7597 ACTION -0.2597
-3.5167 ADITI -0.2728
-2.3887 AGENT -0.2655
-4.3618 AGENTS -0.2728
-3.5167 ALESSANDRO -0.2728
-4.0608 ALL -0.3007
-2.0970 ALLOWED -0.2887
-3.3204 AM -0.2995
-2.7184 AREA -0.2728
-3.2826 ARM -0.2728
-3.2826 AROUND -0.2728
-2.6059 AWAY -0.2685
-3.3618 BAXTER -0.2718
-2.4697 BELONG -0.2887
-2.4173 BELONGS -0.2887
-3.0001 BLOCK -0.2728
-3.0001 BLUE -0.2728
-2.4173 BY -0.2691
-2.3980 CAN -0.2783
-2.3980 CAN'T -0.2783
-2.8055 CANCEL -0.2584
-2.3980 CANNOT -0.2783
-3.0001 CHARGER -0.2728
-4.3618 CLAIMS -0.2728
-4.3618 CLEAN -0.2999
-4.3618 CLEAR -0.2995
-2.5910 COLLECT -0.2736
-3.5167 CORINA -0.2728
-3.7597 DID -0.2921
-3.7597 DIDN'T -0.2921
-1.6698 DO -0.2884
-4.3618 DOES -0.2982
-2.4753 DOESN'T -0.2996
-2.9816 DOING -0.2728
-2.3980 DON'T -0.2783
-2.6806 DOWN -0.2718
-2.7936 EIGHT -0.2655
-3.8847 EVERYTHING -0.2728
-3.0396 FIND -0.2970
-2.7936 FIVE -0.2655
-2.8433 FOR -0.2967
-2.0970 FORBIDDEN -0.2887
-2.7936 FOUR -0.2655
-2.6059 GET -0.2737
-2.9816 GO -0.2878
-3.0001 GREEN -0.2728
-2.9816 HOLDING -0.2728
-2.6990 HOME -0.2714
-3.3204 I -0.3008
-3.3204 I'M -0.2995
-1.6869 IF -0.2881
-2.7184 IN -0.2995
-2.9639 IS -0.2920
-2.0608 ISN'T -0.2933
-1.7786 IT -0.2620
-1.8994 IT'S -0.2915
-3.5167 JAKE -0.2728
-3.0001 LAPTOP -0.2728
-2.8433 LOOK -0.3002
-2.0970 MAY -0.2728
-2.6806 ME -0.2728
-3.5167 MEIYING -0.2728
-2.8994 MINE -0.2728
-3.0001 MUG -0.2728
-3.5167 NICOLE -0.2728
-2.7936 NINE -0.2655
-3.8847 NO -0.3008
-1.9193 NOT -0.2703
-2.0334 OBJECT -0.2650
-3.1857 OBJECTS -0.2728
-3.3204 OF -0.2941
-2.3980 OKAY -0.2887
-3.5167 OLIVIER -0.2728
-2.7936 ONE -0.2655
-2.3204 OWNED -0.2710
-3.3204 OWNER -0.3008
-3.3204 OWNS -0.2941
-3.0001 PEN -0.2728
-4.3618 PERMISSIONS -0.2728
-2.6059 PICK -0.2768
-2.9816 POSITION -0.2728
-2.6806 PUT -0.2770
-3.0001 RED -0.2728
-2.6806 RELEASE -0.2770
-2.6059 REPLACE -0.2737
-2.8847 RESET -0.3002
-4.3618 RULES -0.2728
-3.5167 SARAH -0.2728
-2.9816 SCAN -0.2989
-3.5167 SCAZ -0.2728
-2.7936 SEVEN -0.2655
-2.7936 SIX -0.2655
-2.7184 SOMEONE -0.2728
-2.6716 STOP -0.2503
-1.5436 THAT -0.2378
-3.8847 THAT'S -0.2952
-2.4533 THE -0.2982
-2.1828 THIS -0.2555
-2.7936 THREE -0.2655
-2.6059 THROW -0.2768
-1.5543 TO -0.2378
-2.4533 TRASH -0.2727
-2.7936 TWO -0.2655
-2.5984 UP -0.2669
-3.0001 WALLET -0.2728
-2.6806 WHAT -0.2931
-3.0001 WHO -0.3003
-3.2826 WHOSE -0.2965
-3.4587 WHY -0.3009
-3.2157 WORKSPACE -0.2728
-3.0001 WRAPPER -0.2728
-3.5167 XUAN -0.2728
-1.6916 YOU -0.2827
-1.7427 YOU'RE -0.2877
-2.9816 YOUR -0.3003
-2.9304 ZERO -0.2728

\2-grams:
-3.4615 <s> ADITI 0.0000
-2.4615 <s> AGENT -0.1668
-3.4615 <s> ALESSANDRO 0.0000
-3.4615 <s> BAXTER -0.0792
-3.4615 <s> BLOCK 0.0000
-3.4615 <s> BLUE 0.0000
-2.9844 <s> CANCEL 0.0000
-3.4615 <s> CHARGER 0.0000
-3.4615 <s> CLEAN 0.0000
-3.4615 <s> CLEAR 0.0000
-2.2854 <s> COLLECT 0.0000
-3.4615 <s> CORINA 0.0000
-1.4977 <s> DON'T -0.0000
-2.4201 <s> EIGHT 0.0000
-2.4615 <s> FIND 0.0000
-2.4201 <s> FIVE -0.0000
-2.4201 <s> FOUR -0.0000
-2.3476 <s> GET 0.0000
-3.1605 <s> GO 0.0000
-3.4615 <s> GREEN 0.0000
-2.4201 <s> I 0.0000
-2.4201 <s> I'M 0.0000
-1.4977 <s> IT'S -0.2260
-3.4615 <s> JAKE 0.0000
-3.4615 <s> LAPTOP 0.0000
-2.4201 <s> LOOK 0.0000
-3.4615 <s> MEIYING 0.0000
-3.4615 <s> MUG 0.0000
-3.4615 <s> NICOLE 0.0000
-2.4201 <s> NINE -0.0000
-2.9844 <s> NO 0.0000
-2.4615 <s> OBJECT -0.1573
-3.4615 <s> OLIVIER 0.0000
-2.4201 <s> ONE -0.0000
-3.4615 <s> PEN 0.0000
-2.3476 <s> PICK 0.0000
-2.8594 <s> PUT 0.0000
-3.4615 <s> RED 0.0000
-2.8594 <s> RELEASE 0.0000
-2.3476 <s> REPLACE 0.0000
-2.5584 <s> RESET 0.0000
-3.4615 <s> SARAH 0.0000
-3.1605 <s> SCAN 0.0000
-3.4615 <s> SCAZ 0.0000
-2.4201 <s> SEVEN 0.0000
-2.4201 <s> SIX 0.0000
-2.8594 <s> STOP 0.0000
-1.7987 <s> THAT -0.2856
-3.1605 <s> THAT'S 0.0000
-1.7987 <s> THIS -0.2293
-2.4201 <s> THREE 0.0000
-2.3476 <s> THROW 0.0000
-2.2854 <s> TRASH -0.1044
-2.4201 <s> TWO 0.0000
-3.4615 <s> WALLET 0.0000
-2.0998 <s> WHO 0.0000
-2.3823 <s> WHOSE 0.0000
-2.5584 <s> WHY 0.0000
-3.4615 <s> WRAPPER 0.0000
-3.4615 <s> XUAN 0.0000
-0.7987 <s> YOU -0.0074
-0.8957 <s> YOU'RE -0.0474
-3.4615 <s> ZERO 0.0000
-1.1461 A BLOCK 0.0000
-1.1461 A CHARGER 0.0000
-1.1461 A LAPTOP 0.0000
-1.1461 A MUG 0.0000
-1.1461 A PEN 0.0000
-1.1461 A WALLET 0.0000
-1.1461 A WRAPPER 0.0000
-0.6021 ACTION </s> -0.3010
-0.6021 ACTION TO -0.2997
-0.3010 ADITI </s> -0.3010
-0.6307 AGENT </s> -0.3010
-1.5752 AGENT EIGHT -0.1039
-1.5752 AGENT FIVE -0.1039
-1.5752 AGENT FOUR -0.1039
-1.5752 AGENT NINE -0.1039
-1.5752 AGENT ONE -0.1039
-1.5752 AGENT SEVEN -0.1039
-1.5752 AGENT SIX -0.1039
-1.5752 AGENT THREE -0.1039
-1.5752 AGENT TWO -0.1039
-1.5752 AGENT ZERO 0.0000
-0.3010 AGENTS </s> -0.3010
-0.3010 ALESSANDRO </s> -0.3010
-0.3010 ALL OBJECTS 0.0000
-0.3010 ALLOWED TO -0.1084
-1.3424 AM ADITI 0.0000
-1.3424 AM ALESSANDRO 0.0000
-1.3424 AM BAXTER -0.0792
-1.3424 AM CORINA 0.0000
-1.3424 AM JAKE 0.0000
-1.3424 AM MEIYING 0.0000
-1.3424 AM NICOLE 0.0000
-1.3424 AM OLIVIER 0.0000
-1.3424 AM SARAH 0.0000
-1.3424 AM SCAZ 0.0000
-1.3424 AM XUAN 0.0000
-0.3010 AREA </s> -0.3010
-0.3010 ARM </s> -0.3010
-0.3010 AROUND </s> -0.3010
-0.5006 AWAY </s> -0.3010
-0.7347 AWAY OBJECT -0.0020
-0.3979 BAXTER </s> -0.3010
-1.3010 BAXTER STOP -0.2392
-1.3010 BAXTER THAT'S -0.1249
-0.3010 BELONG TO -0.2409
-0.3010 BELONGS TO -0.2409
-0.3010 BLOCK </s> -0.3010
-0.3010 BLUE </s> -0.3010
-0.9031 BY </s> -0.3010
-0.9031 BY AGENT -0.1852
-0.9031 BY ME 0.0000
-0.9031 BY SOMEONE 0.0000
-1.7877 CAN CANCEL 0.0000
-1.6628 CAN COLLECT -0.0145
-0.6214 CAN DO 0.0000
-2.2648 CAN FIND 0.0000
-1.6628 CAN GET 0.0000
-1.9638 CAN GO 0.0000
-1.9638 CAN LOOK 0.0000
-1.6628 CAN PICK 0.0000
-1.6628 CAN PUT 0.0000
-1.6628 CAN RELEASE 0.0000
-1.6628 CAN REPLACE 0.0000
-1.9638 CAN RESET -0.0792
-1.9638 CAN SCAN 0.0000
-1.6628 CAN STOP 0.0000
-1.6628 CAN THROW 0.0000
-1.6628 CAN TRASH -0.1127
-1.7877 CAN'T CANCEL 0.0000
-1.6628 CAN'T COLLECT -0.0145
-0.6214 CAN'T DO 0.0000
-2.2648 CAN'T FIND 0.0000
-1.6628 CAN'T GET 0.0000
-1.9638 CAN'T GO 0.0000
-1.9638 CAN'T LOOK 0.0000
-1.6628 CAN'T PICK 0.0000
-1.6628 CAN'T PUT 0.0000
-1.6628 CAN'T RELEASE 0.0000
-1.6628 CAN'T REPLACE 0.0000
-1.9638 CAN'T RESET -0.0792
-1.9638 CAN'T SCAN 0.0000
-1.6628 CAN'T STOP 0.0000
-1.6628 CAN'T THROW 0.0000
-1.6628 CAN'T TRASH -0.1127
-0.7782 CANCEL </s> -0.3010
-0.7782 CANCEL THAT -0.2678
-0.7782 CANCEL WHAT 0.0000
-1.7877 CANNOT CANCEL 0.0000
-1.6628 CANNOT COLLECT -0.0145
-0.6214 CANNOT DO 0.0000
-2.2648 CANNOT FIND 0.0000
-1.6628 CANNOT GET 0.0000
-1.9638 CANNOT GO 0.0000
-1.9638 CANNOT LOOK 0.0000
-1.6628 CANNOT PICK 0.0000
-1.6628 CANNOT PUT 0.0000
-1.6628 CANNOT RELEASE 0.0000
-1.6628 CANNOT REPLACE 0.0000
-1.9638 CANNOT RESET -0.0792
-1.9638 CANNOT SCAN 0.0000
-1.6628 CANNOT STOP 0.0000
-1.6628 CANNOT THROW 0.0000
-1.6628 CANNOT TRASH -0.1127
-0.3010 CHARGER </s> -0.3010
-0.3010 CLAIMS </s> -0.3010
-0.3010 CLEAN UP -0.2973
-0.3010 CLEAR THE -0.2618
-2.0719 COLLECT ALL 0.0000
-2.0719 COLLECT EVERYTHING 0.0000
-0.9927 COLLECT IT -0.2582
-0.7497 COLLECT OBJECT -0.0020
-0.9927 COLLECT THAT -0.2678
-0.9927 COLLECT THIS -0.1976
-0.3010 CORINA </s> -0.3010
-0.3010 DID YOU -0.2973
-0.3010 DIDN'T YOU -0.2973
-0.3010 DO THAT -0.0510
-0.3010 DOES THIS -0.2996
-0.3010 DOESN'T BELONG 0.0000
-0.3010 DOING </s> -0.3010
-1.7877 DON'T CANCEL 0.0000
-1.6628 DON'T COLLECT -0.0145
-0.6214 DON'T DO 0.0000
-2.2648 DON'T FIND 0.0000
-1.6628 DON'T GET 0.0000
-1.9638 DON'T GO 0.0000
-1.9638 DON'T LOOK 0.0000
-1.6628 DON'T PICK 0.0000
-1.6628 DON'T PUT 0.0000
-1.6628 DON'T RELEASE 0.0000
-1.6628 DON'T REPLACE 0.0000
-1.9638 DON'T RESET -0.0792
-1.9638 DON'T SCAN 0.0000
-1.6628 DON'T STOP 0.0000
-1.6628 DON'T THROW 0.0000
-1.6628 DON'T TRASH -0.1127
-0.4260 DOWN </s> -0.3010
-0.9031 DOWN WHAT 0.0000
-0.4379 EIGHT </s> -0.3010
-1.8692 EIGHT EIGHT -0.1039
-1.8692 EIGHT FIVE -0.1039
-1.8692 EIGHT FOUR -0.1039
-1.8692 EIGHT NINE -0.1039
-1.8692 EIGHT ONE -0.1039
-1.8692 EIGHT SEVEN -0.1039
-1.8692 EIGHT SIX -0.1039
-1.8692 EIGHT THREE -0.1039
-1.8692 EIGHT TWO -0.1039
-1.8692 EIGHT ZERO 0.0000
-0.3010 EVERYTHING </s> -0.3010
-0.3010 FIND OBJECT -0.0020
-0.4379 FIVE </s> -0.3010
-1.8692 FIVE EIGHT -0.1039
-1.8692 FIVE FIVE -0.1039
-1.8692 FIVE FOUR -0.1039
-1.8692 FIVE NINE -0.1039
-1.8692 FIVE ONE -0.1039
-1.8692 FIVE SEVEN -0.1039
-1.8692 FIVE SIX -0.1039
-1.8692 FIVE THREE -0.1039
-1.8692 FIVE TWO -0.1039
-1.8692 FIVE ZERO 0.0000
-0.4973 FOR OBJECT -0.0020
-0.7404 FOR OBJECTS 0.0000
-0.3010 FORBIDDEN TO -0.1084
-0.4379 FOUR </s> -0.3010
-1.8692 FOUR EIGHT -0.1039
-1.8692 FOUR FIVE -0.1039
-1.8692 FOUR FOUR -0.1039
-1.8692 FOUR NINE -0.1039
-1.8692 FOUR ONE -0.1039
-1.8692 FOUR SEVEN -0.1039
-1.8692 FOUR SIX -0.1039
-1.8692 FOUR THREE -0.1039
-1.8692 FOUR TWO -0.1039
-1.8692 FOUR ZERO 0.0000
-0.9777 GET IT -0.2582
-0.7347 GET OBJECT -0.0020
-0.9777 GET THAT -0.2678
-0.9777 GET THIS -0.1976
-0.6021 GO HOME -0.2403
-0.6021 GO TO -0.2970
-0.3010 GREEN </s> -0.3010
-0.3010 HOLDING </s> -0.3010
-0.8846 HOME </s> -0.3010
-0.6214 HOME AREA 0.0000
-0.8846 HOME POSITION 0.0000
-0.3010 I AM 0.0000
-1.3424 I'M ADITI 0.0000
-1.3424 I'M ALESSANDRO 0.0000
-1.3424 I'M BAXTER -0.0792
-1.3424 I'M CORINA 0.0000
-1.3424 I'M JAKE 0.0000
-1.3424 I'M MEIYING 0.0000
-1.3424 I'M NICOLE 0.0000
-1.3424 I'M OLIVIER 0.0000
-1.3424 I'M SARAH 0.0000
-1.3424 I'M SCAZ 0.0000
-1.3424 I'M XUAN 0.0000
-0.5366 IF IT -0.1079
-0.6792 IF IT'S -0.1197
-0.3010 IN THE -0.1168
-1.3979 IS MINE 0.0000
-0.6990 IS OBJECT -0.1573
-0.6576 IS THE -0.2705
-1.3979 IS THIS -0.1976
-0.7156 ISN'T A -0.0000
-1.5607 ISN'T BLUE 0.0000
-1.5607 ISN'T GREEN 0.0000
-1.2596 ISN'T IN 0.0000
-1.4881 ISN'T MINE 0.0000
-0.8617 ISN'T OWNED 0.0000
-1.5607 ISN'T RED 0.0000
-1.0269 IT </s> -0.3010
-1.8050 IT AWAY -0.1362
-1.2408 IT BELONGS 0.0000
-1.3657 IT DOESN'T 0.0000
-1.8050 IT DOWN -0.0969
-0.5876 IT ISN'T 0.0000
-1.8050 IT UP -0.1397
-0.8769 IT'S A -0.0000
-1.7220 IT'S BLUE 0.0000
-1.7220 IT'S GREEN 0.0000
-1.4210 IT'S IN 0.0000
-1.7220 IT'S MINE 0.0000
-0.7996 IT'S OKAY 0.0000
-1.0231 IT'S OWNED 0.0000
-1.7220 IT'S RED 0.0000
-0.3010 JAKE </s> -0.3010
-0.3010 LAPTOP </s> -0.3010
-0.7404 LOOK AROUND 0.0000
-0.4973 LOOK FOR -0.1347
-2.0887 MAY CANCEL 0.0000
-1.9638 MAY COLLECT -0.0145
-0.9224 MAY DO 0.0000
-2.5658 MAY FIND 0.0000
-1.9638 MAY GET 0.0000
-2.2648 MAY GO 0.0000
-2.2648 MAY LOOK 0.0000
-0.6021 MAY NOT -0.2222
-1.9638 MAY PICK 0.0000
-1.9638 MAY PUT 0.0000
-1.9638 MAY RELEASE 0.0000
-1.9638 MAY REPLACE 0.0000
-2.2648 MAY RESET -0.0792
-2.2648 MAY SCAN 0.0000
-1.9638 MAY STOP 0.0000
-1.9638 MAY THROW 0.0000
-1.9638 MAY TRASH -0.1127
-0.3010 ME </s> -0.3010
-0.3010 MEIYING </s> -0.3010
-0.3010 MINE </s> -0.3010
-0.3010 MUG </s> -0.3010
-0.3010 NICOLE </s> -0.3010
-0.4379 NINE </s> -0.3010
-1.8692 NINE EIGHT -0.1039
-1.8692 NINE FIVE -0.1039
-1.8692 NINE FOUR -0.1039
-1.8692 NINE NINE -0.1039
-1.8692 NINE ONE -0.1039
-1.8692 NINE SEVEN -0.1039
-1.8692 NINE SIX -0.1039
-1.8692 NINE THREE -0.1039
-1.8692 NINE TWO -0.1039
-1.8692 NINE ZERO 0.0000
-0.3010 NO BAXTER 0.0000
-0.7797 NOT ALLOWED 0.0000
-2.2664 NOT CANCEL 0.0000
-2.1414 NOT COLLECT -0.0145
-1.1001 NOT DO 0.0000
-2.7435 NOT FIND 0.0000
-0.7797 NOT FORBIDDEN 0.0000
-2.1414 NOT GET 0.0000
-2.4425 NOT GO 0.0000
-2.4425 NOT LOOK 0.0000
-2.7435 NOT MINE 0.0000
-2.1414 NOT PICK 0.0000
-2.1414 NOT PUT 0.0000
-2.1414 NOT RELEASE 0.0000
-2.1414 NOT REPLACE 0.0000
-2.4425 NOT RESET -0.0792
-2.4425 NOT SCAN 0.0000
-2.1414 NOT STOP 0.0000
-2.1414 NOT THROW 0.0000
-2.1414 NOT TRASH -0.1127
-0.6656 OBJECT </s> -0.3010
-1.5502 OBJECT EIGHT -0.1039
-1.5502 OBJECT FIVE -0.1039
-1.5502 OBJECT FOUR -0.1039
-2.6294 OBJECT IS -0.2833
-1.5502 OBJECT NINE -0.1039
-1.5502 OBJECT ONE -0.1039
-1.5502 OBJECT SEVEN -0.1039
-1.5502 OBJECT SIX -0.1039
-1.5502 OBJECT THREE -0.1039
-1.5502 OBJECT TWO -0.1039
-1.5502 OBJECT ZERO 0.0000
-0.3010 OBJECTS </s> -0.3010
-0.3424 OF OBJECT -0.1573
-1.3424 OF THIS -0.1976
-0.3010 OKAY TO -0.1084
-0.3010 OLIVIER </s> -0.3010
-0.4379 ONE </s> -0.3010
-1.8692 ONE EIGHT -0.1039
-1.8692 ONE FIVE -0.1039
-1.8692 ONE FOUR -0.1039
-1.8692 ONE NINE -0.1039
-1.8692 ONE ONE -0.1039
-1.8692 ONE SEVEN -0.1039
-1.8692 ONE SIX -0.1039
-1.8692 ONE THREE -0.1039
-1.8692 ONE TWO -0.1039
-1.8692 ONE ZERO 0.0000
-1.0000 OWNED </s> -0.3010
-0.3979 OWNED BY 0.0000
-0.3010 OWNER OF 0.0000
-0.3424 OWNS OBJECT -0.1573
-1.3424 OWNS THIS -0.1976
-0.3010 PEN </s> -0.3010
-0.3010 PERMISSIONS </s> -0.3010
-0.9777 PICK IT -0.2942
-0.9777 PICK THAT -0.2971
-0.9777 PICK THIS -0.2834
-0.7347 PICK UP -0.2143
-0.3010 POSITION </s> -0.3010
-0.9031 PUT DOWN -0.2430
-0.9031 PUT IT -0.2942
-0.9031 PUT THAT -0.2971
-0.9031 PUT THIS -0.2834
-0.3010 RED </s> -0.3010
-0.9031 RELEASE IT -0.2582
-0.9031 RELEASE THAT -0.2678
-0.9031 RELEASE THIS -0.1976
-0.9031 RELEASE WHAT 0.0000
-0.9777 REPLACE IT -0.2582
-0.7347 REPLACE OBJECT -0.0020
-0.9777 REPLACE THAT -0.2678
-0.9777 REPLACE THIS -0.1976
-1.7782 RESET AGENTS 0.0000
-1.7782 RESET CLAIMS 0.0000
-1.7782 RESET EVERYTHING 0.0000
-1.7782 RESET OBJECTS 0.0000
-1.7782 RESET PERMISSIONS 0.0000
-1.7782 RESET RULES 0.0000
-0.3979 RESET YOUR 0.0000
-0.3010 RULES </s> -0.3010
-0.3010 SARAH </s> -0.3010
-0.6021 SCAN FOR -0.2139
-0.6021 SCAN THE -0.2618
-0.3010 SCAZ </s> -0.3010
-0.4379 SEVEN </s> -0.3010
-1.8692 SEVEN EIGHT -0.1039
-1.8692 SEVEN FIVE -0.1039
-1.8692 SEVEN FOUR -0.1039
-1.8692 SEVEN NINE -0.1039
-1.8692 SEVEN ONE -0.1039
-1.8692 SEVEN SEVEN -0.1039
-1.8692 SEVEN SIX -0.1039
-1.8692 SEVEN THREE -0.1039
-1.8692 SEVEN TWO -0.1039
-1.8692 SEVEN ZERO 0.0000
-0.4379 SIX </s> -0.3010
-1.8692 SIX EIGHT -0.1039
-1.8692 SIX FIVE -0.1039
-1.8692 SIX FOUR -0.1039
-1.8692 SIX NINE -0.1039
-1.8692 SIX ONE -0.1039
-1.8692 SIX SEVEN -0.1039
-1.8692 SIX SIX -0.1039
-1.8692 SIX THREE -0.1039
-1.8692 SIX TWO -0.1039
-1.8692 SIX ZERO 0.0000
-0.3010 SOMEONE </s> -0.3010
-0.8773 STOP </s> -0.3010
-0.9120 STOP IT -0.2582
-0.9120 STOP THAT -0.2678
-0.9120 STOP WHAT 0.0000
-1.1325 THAT </s> -0.3010
-2.5172 THAT ACTION 0.0000
-2.0401 THAT AWAY -0.1362
-1.7768 THAT BELONGS 0.0000
-1.7768 THAT DOESN'T 0.0000
-2.0401 THAT DOWN -0.0969
-0.4444 THAT IF 0.0000
-3.1193 THAT IS -0.2833
-3.1193 THAT ISN'T -0.2867
-2.8182 THAT TO -0.2997
-2.0401 THAT UP -0.1397
-0.4771 THAT'S MINE 0.0000
-0.7782 THAT'S NOT -0.3002
-0.6780 THE HOME -0.1007
-1.1681 THE OWNER 0.0000
-0.8671 THE TRASH -0.2376
-1.0634 THE WORKSPACE 0.0000
-0.6738 THIS </s> -0.3010
-1.4008 THIS AWAY -0.1362
-2.4800 THIS BELONG 0.0000
-1.1376 THIS BELONGS 0.0000
-1.1376 THIS DOESN'T 0.0000
-1.4008 THIS DOWN -0.0969
-2.4800 THIS IS -0.2833
-2.4800 THIS ISN'T -0.2867
-1.8779 THIS OBJECT -0.1954
-1.4008 THIS UP -0.1397
-0.4379 THREE </s> -0.3010
-1.8692 THREE EIGHT -0.1039
-1.8692 THREE FIVE -0.1039
-1.8692 THREE FOUR -0.1039
-1.8692 THREE NINE -0.1039
-1.8692 THREE ONE -0.1039
-1.8692 THREE SEVEN -0.1039
-1.8692 THREE SIX -0.1039
-1.8692 THREE THREE -0.1039
-1.8692 THREE TWO -0.1039
-1.8692 THREE ZERO 0.0000
-0.7347 THROW AWAY -0.2126
-0.9777 THROW IT -0.2942
-0.9777 THROW THAT -0.2971
-0.9777 THROW THIS -0.2834
-2.0294 TO </s> -0.3010
-2.5065 TO ADITI 0.0000
-1.3162 TO AGENT 0.0000
-2.5065 TO ALESSANDRO 0.0000
-2.5065 TO BAXTER -0.0792
-1.9325 TO CANCEL 0.0000
-1.8075 TO COLLECT -0.0145
-2.5065 TO CORINA 0.0000
-0.7661 TO DO 0.0000
-2.4096 TO FIND 0.0000
-1.8075 TO GET 0.0000
-2.1086 TO GO 0.0000
-2.5065 TO JAKE 0.0000
-2.1086 TO LOOK 0.0000
-1.6936 TO ME 0.0000
-2.5065 TO MEIYING 0.0000
-2.5065 TO NICOLE 0.0000
-2.5065 TO OLIVIER 0.0000
-1.8075 TO PICK 0.0000
-1.8075 TO PUT 0.0000
-1.8075 TO RELEASE 0.0000
-1.8075 TO REPLACE 0.0000
-2.1086 TO RESET -0.0792
-2.5065 TO SARAH 0.0000
-2.1086 TO SCAN 0.0000
-2.5065 TO SCAZ 0.0000
-1.7661 TO SOMEONE 0.0000
-1.8075 TO STOP 0.0000
-2.0294 TO THE -0.1987
-2.5065 TO THIS -0.2952
-1.8075 TO THROW 0.0000
-1.8075 TO TRASH -0.1127
-2.5065 TO XUAN 0.0000
-2.2095 TRASH ALL 0.0000
-0.8671 TRASH AREA 0.0000
-2.2095 TRASH EVERYTHING 0.0000
-1.1303 TRASH IT -0.2582
-0.8873 TRASH OBJECT -0.0020
-1.1303 TRASH THAT -0.2678
-1.1303 TRASH THIS -0.1976
-0.4379 TWO </s> -0.3010
-1.8692 TWO EIGHT -0.1039
-1.8692 TWO FIVE -0.1039
-1.8692 TWO FOUR -0.1039
-1.8692 TWO NINE -0.1039
-1.8692 TWO ONE -0.1039
-1.8692 TWO SEVEN -0.1039
-1.8692 TWO SIX -0.1039
-1.8692 TWO THREE -0.1039
-1.8692 TWO TWO -0.1039
-1.8692 TWO ZERO 0.0000
-0.5082 UP </s> -0.3010
-0.7422 UP OBJECT -0.0020
-2.0645 UP THE -0.2618
-0.3010 WALLET </s> -0.3010
-0.3010 WHAT YOU'RE -0.2752
-1.6628 WHO DOES 0.0000
-0.6214 WHO IS -0.1931
-0.6214 WHO OWNS 0.0000
-0.3388 WHOSE IS -0.1818
-1.3802 WHOSE OBJECT -0.3000
-0.6021 WHY DID 0.0000
-0.6021 WHY DIDN'T 0.0000
-0.3010 WORKSPACE </s> -0.3010
-0.3010 WRAPPER </s> -0.3010
-0.3010 XUAN </s> -0.3010
-1.0075 YOU CAN -0.0000
-1.0075 YOU CAN'T 0.0000
-1.0075 YOU CANNOT -0.0000
-2.0682 YOU DO 0.0000
-0.7065 YOU MAY 0.0000
-0.9563 YOU'RE ALLOWED 0.0000
-1.5399 YOU'RE DOING 0.0000
-0.9563 YOU'RE FORBIDDEN 0.0000
-1.5399 YOU'RE HOLDING 0.0000
-0.6553 YOU'RE NOT -0.1257
-0.6021 YOUR ARM 0.0000
-0.6021 YOUR POSITION 0.0000
-0.3010 ZERO </s> -0.3010

\3-grams:
-0.3010 <s> ADITI </s>
-1.3010 <s> AGENT EIGHT
-1.3010 <s> AGENT FIVE
-1.3010 <s> AGENT FOUR
-1.3010 <s> AGENT NINE
-1.3010 <s> AGENT ONE
-1.3010 <s> AGENT SEVEN
-1.3010 <s> AGENT SIX
-1.3010 <s> AGENT THREE
-1.3010 <s> AGENT TWO
-1.3010 <s> AGENT ZERO
-0.3010 <s> ALESSANDRO </s>
-0.3010 <s> BAXTER </s>
-0.3010 <s> BLOCK </s>
-0.3010 <s> BLUE </s>
-0.7782 <s> CANCEL </s>
-0.7782 <s> CANCEL THAT
-0.7782 <s> CANCEL WHAT
-0.3010 <s> CHARGER </s>
-0.3010 <s> CLEAN UP
-0.3010 <s> CLEAR THE
-1.4771 <s> COLLECT ALL
-1.4771 <s> COLLECT EVERYTHING
-1.4771 <s> COLLECT IT
-0.4771 <s> COLLECT OBJECT
-1.4771 <s> COLLECT THAT
-1.4771 <s> COLLECT THIS
-0.3010 <s> CORINA </s>
-1.7877 <s> DON'T CANCEL
-1.6628 <s> DON'T COLLECT
-0.6214 <s> DON'T DO
-2.2648 <s> DON'T FIND
-1.6628 <s> DON'T GET
-1.9638 <s> DON'T GO
-1.9638 <s> DON'T LOOK
-1.6628 <s> DON'T PICK
-1.6628 <s> DON'T PUT
-1.6628 <s> DON'T RELEASE
-1.6628 <s> DON'T REPLACE
-1.9638 <s> DON'T RESET
-1.9638 <s> DON'T SCAN
-1.6628 <s> DON'T STOP
-1.6628 <s> DON'T THROW
-1.6628 <s> DON'T TRASH
-1.3424 <s> EIGHT </s>
-1.3424 <s> EIGHT EIGHT
-1.3424 <s> EIGHT FIVE
-1.3424 <s> EIGHT FOUR
-1.3424 <s> EIGHT NINE
-1.3424 <s> EIGHT ONE
-1.3424 <s> EIGHT SEVEN
-1.3424 <s> EIGHT SIX
-1.3424 <s> EIGHT THREE
-1.3424 <s> EIGHT TWO
-1.3424 <s> EIGHT ZERO
-0.3010 <s> FIND OBJECT
-1.3424 <s> FIVE </s>
-1.3424 <s> FIVE EIGHT
-1.3424 <s> FIVE FIVE
-1.3424 <s> FIVE FOUR
-1.3424 <s> FIVE NINE
-1.3424 <s> FIVE ONE
-1.3424 <s> FIVE SEVEN
-1.3424 <s> FIVE SIX
-1.3424 <s> FIVE THREE
-1.3424 <s> FIVE TWO
-1.3424 <s> FIVE ZERO
-1.3424 <s> FOUR </s>
-1.3424 <s> FOUR EIGHT
-1.3424 <s> FOUR FIVE
-1.3424 <s> FOUR FOUR
-1.3424 <s> FOUR NINE
-1.3424 <s> FOUR ONE
-1.3424 <s> FOUR SEVEN
-1.3424 <s> FOUR SIX
-1.3424 <s> FOUR THREE
-1.3424 <s> FOUR TWO
-1.3424 <s> FOUR ZERO
-1.4150 <s> GET IT
-0.4150 <s> GET OBJECT
-1.4150 <s> GET THAT
-1.4150 <s> GET THIS
-0.6021 <s> GO HOME
-0.6021 <s> GO TO
-0.3010 <s> GREEN </s>
-0.3010 <s> I AM
-1.3424 <s> I'M ADITI
-1.3424 <s> I'M ALESSANDRO
-1.3424 <s> I'M BAXTER
-1.3424 <s> I'M CORINA
-1.3424 <s> I'M JAKE
-1.3424 <s> I'M MEIYING
-1.3424 <s> I'M NICOLE
-1.3424 <s> I'M OLIVIER
-1.3424 <s> I'M SARAH
-1.3424 <s> I'M SCAZ
-1.3424 <s> I'M XUAN
-0.3010 <s> IT'S OKAY
-0.3010 <s> JAKE </s>
-0.3010 <s> LAPTOP </s>
-1.3424 <s> LOOK AROUND
-0.3424 <s> LOOK FOR
-0.3010 <s> MEIYING </s>
-0.3010 <s> MUG </s>
-0.3010 <s> NICOLE </s>
-1.3424 <s> NINE </s>
-1.3424 <s> NINE EIGHT
-1.3424 <s> NINE FIVE
-1.3424 <s> NINE FOUR
-1.3424 <s> NINE NINE
-1.3424 <s> NINE ONE
-1.3424 <s> NINE SEVEN
-1.3424 <s> NINE SIX
-1.3424 <s> NINE THREE
-1.3424 <s> NINE TWO
-1.3424 <s> NINE ZERO
-0.3010 <s> NO BAXTER
-1.3010 <s> OBJECT EIGHT
-1.3010 <s> OBJECT FIVE
-1.3010 <s> OBJECT FOUR
-1.3010 <s> OBJECT NINE
-1.3010 <s> OBJECT ONE
-1.3010 <s> OBJECT SEVEN
-1.3010 <s> OBJECT SIX
-1.3010 <s> OBJECT THREE
-1.3010 <s> OBJECT TWO
-1.3010 <s> OBJECT ZERO
-0.3010 <s> OLIVIER </s>
-1.3424 <s> ONE </s>
-1.3424 <s> ONE EIGHT
-1.3424 <s> ONE FIVE
-1.3424 <s> ONE FOUR
-1.3424 <s> ONE NINE
-1.3424 <s> ONE ONE
-1.3424 <s> ONE SEVEN
-1.3424 <s> ONE SIX
-1.3424 <s> ONE THREE
-1.3424 <s> ONE TWO
-1.3424 <s> ONE ZERO
-0.3010 <s> PEN </s>
-1.4150 <s> PICK IT
-1.4150 <s> PICK THAT
-1.4150 <s> PICK THIS
-0.4150 <s> PICK UP
-0.9031 <s> PUT DOWN
-0.9031 <s> PUT IT
-0.9031 <s> PUT THAT
-0.9031 <s> PUT THIS
-0.3010 <s> RED </s>
-0.9031 <s> RELEASE IT
-0.9031 <s> RELEASE THAT
-0.9031 <s> RELEASE THIS
-0.9031 <s> RELEASE WHAT
-1.4150 <s> REPLACE IT
-0.4150 <s> REPLACE OBJECT
-1.4150 <s> REPLACE THAT
-1.4150 <s> REPLACE THIS
-1.2041 <s> RESET AGENTS
-1.2041 <s> RESET CLAIMS
-1.2041 <s> RESET EVERYTHING
-1.2041 <s> RESET OBJECTS
-1.2041 <s> RESET PERMISSIONS
-1.2041 <s> RESET RULES
-0.9031 <s> RESET YOUR
-0.3010 <s> SARAH </s>
-0.6021 <s> SCAN FOR
-0.6021 <s> SCAN THE
-0.3010 <s> SCAZ </s>
-1.3424 <s> SEVEN </s>
-1.3424 <s> SEVEN EIGHT
-1.3424 <s> SEVEN FIVE
-1.3424 <s> SEVEN FOUR
-1.3424 <s> SEVEN NINE
-1.3424 <s> SEVEN ONE
-1.3424 <s> SEVEN SEVEN
-1.3424 <s> SEVEN SIX
-1.3424 <s> SEVEN THREE
-1.3424 <s> SEVEN TWO
-1.3424 <s> SEVEN ZERO
-1.3424 <s> SIX </s>
-1.3424 <s> SIX EIGHT
-1.3424 <s> SIX FIVE
-1.3424 <s> SIX FOUR
-1.3424 <s> SIX NINE
-1.3424 <s> SIX ONE
-1.3424 <s> SIX SEVEN
-1.3424 <s> SIX SIX
-1.3424 <s> SIX THREE
-1.3424 <s> SIX TWO
-1.3424 <s> SIX ZERO
-0.9031 <s> STOP </s>
-0.9031 <s> STOP IT
-0.9031 <s> STOP THAT
-0.9031 <s> STOP WHAT
-0.6214 <s> THAT BELONGS
-0.6214 <s> THAT DOESN'T
-1.9638 <s> THAT IS
-1.9638 <s> THAT ISN'T
-0.6021 <s> THAT'S MINE
-0.6021 <s> THAT'S NOT
-0.6214 <s> THIS BELONGS
-0.6214 <s> THIS DOESN'T
-1.9638 <s> THIS IS
-1.9638 <s> THIS ISN'T
-1.3424 <s> THREE </s>
-1.3424 <s> THREE EIGHT
-1.3424 <s> THREE FIVE
-1.3424 <s> THREE FOUR
-1.3424 <s> THREE NINE
-1.3424 <s> THREE ONE
-1.3424 <s> THREE SEVEN
-1.3424 <s> THREE SIX
-1.3424 <s> THREE THREE
-1.3424 <s> THREE TWO
-1.3424 <s> THREE ZERO
-0.4150 <s> THROW AWAY
-1.4150 <s> THROW IT
-1.4150 <s> THROW THAT
-1.4150 <s> THROW THIS
-1.4771 <s> TRASH ALL
-1.4771 <s> TRASH EVERYTHING
-1.4771 <s> TRASH IT
-0.4771 <s> TRASH OBJECT
-1.4771 <s> TRASH THAT
-1.4771 <s> TRASH THIS
-1.3424 <s> TWO </s>
-1.3424 <s> TWO EIGHT
-1.3424 <s> TWO FIVE
-1.3424 <s> TWO FOUR
-1.3424 <s> TWO NINE
-1.3424 <s> TWO ONE
-1.3424 <s> TWO SEVEN
-1.3424 <s> TWO SIX
-1.3424 <s> TWO THREE
-1.3424 <s> TWO TWO
-1.3424 <s> TWO ZERO
-0.3010 <s> WALLET </s>
-1.6628 <s> WHO DOES
-0.6214 <s> WHO IS
-0.6214 <s> WHO OWNS
-0.3388 <s> WHOSE IS
-1.3802 <s> WHOSE OBJECT
-0.6021 <s> WHY DID
-0.6021 <s> WHY DIDN'T
-0.3010 <s> WRAPPER </s>
-0.3010 <s> XUAN </s>
-1.0000 <s> YOU CAN
-1.0000 <s> YOU CAN'T
-1.0000 <s> YOU CANNOT
-0.6990 <s> YOU MAY
-0.9031 <s> YOU'RE ALLOWED
-0.9031 <s> YOU'RE FORBIDDEN
-0.6021 <s> YOU'RE NOT
-0.3010 <s> ZERO </s>
-0.3010 A BLOCK </s>
-0.3010 A CHARGER </s>
-0.3010 A LAPTOP </s>
-0.3010 A MUG </s>
-0.3010 A PEN </s>
-0.3010 A WALLET </s>
-0.3010 A WRAPPER </s>
-0.3010 ACTION TO THIS
-0.3010 AGENT EIGHT </s>
-0.3010 AGENT FIVE </s>
-0.3010 AGENT FOUR </s>
-0.3010 AGENT NINE </s>
-0.3010 AGENT ONE </s>
-0.3010 AGENT SEVEN </s>
-0.3010 AGENT SIX </s>
-0.3010 AGENT THREE </s>
-0.3010 AGENT TWO </s>
-0.3010 AGENT ZERO </s>
-0.3010 ALL OBJECTS </s>
-1.7877 ALLOWED TO CANCEL
-1.6628 ALLOWED TO COLLECT
-0.6214 ALLOWED TO DO
-2.2648 ALLOWED TO FIND
-1.6628 ALLOWED TO GET
-1.9638 ALLOWED TO GO
-1.9638 ALLOWED TO LOOK
-1.6628 ALLOWED TO PICK
-1.6628 ALLOWED TO PUT
-1.6628 ALLOWED TO RELEASE
-1.6628 ALLOWED TO REPLACE
-1.9638 ALLOWED TO RESET
-1.9638 ALLOWED TO SCAN
-1.6628 ALLOWED TO STOP
-1.6628 ALLOWED TO THROW
-1.6628 ALLOWED TO TRASH
-0.3010 AM ADITI </s>
-0.3010 AM ALESSANDRO </s>
-0.3010 AM BAXTER </s>
-0.3010 AM CORINA </s>
-0.3010 AM JAKE </s>
-0.3010 AM MEIYING </s>
-0.3010 AM NICOLE </s>
-0.3010 AM OLIVIER </s>
-0.3010 AM SARAH </s>
-0.3010 AM SCAZ </s>
-0.3010 AM XUAN </s>
-0.5819 AWAY OBJECT </s>
-1.6232 AWAY OBJECT EIGHT
-1.6232 AWAY OBJECT FIVE
-1.6232 AWAY OBJECT FOUR
-1.6232 AWAY OBJECT NINE
-1.6232 AWAY OBJECT ONE
-1.6232 AWAY OBJECT SEVEN
-1.6232 AWAY OBJECT SIX
-1.6232 AWAY OBJECT THREE
-1.6232 AWAY OBJECT TWO
-1.6232 AWAY OBJECT ZERO
-0.3010 BAXTER STOP </s>
-0.3010 BAXTER THAT'S MINE
-2.1931 BELONG TO </s>
-1.8921 BELONG TO ADITI
-0.7018 BELONG TO AGENT
-1.8921 BELONG TO ALESSANDRO
-1.8921 BELONG TO BAXTER
-1.8921 BELONG TO CORINA
-1.8921 BELONG TO JAKE
-1.0792 BELONG TO ME
-1.8921 BELONG TO MEIYING
-1.8921 BELONG TO NICOLE
-1.8921 BELONG TO OLIVIER
-1.8921 BELONG TO SARAH
-1.8921 BELONG TO SCAZ
-1.1517 BELONG TO SOMEONE
-1.8921 BELONG TO XUAN
-1.2041 BELONGS TO </s>
-1.9445 BELONGS TO ADITI
-0.7542 BELONGS TO AGENT
-1.9445 BELONGS TO ALESSANDRO
-1.9445 BELONGS TO BAXTER
-1.9445 BELONGS TO CORINA
-1.9445 BELONGS TO JAKE
-1.1316 BELONGS TO ME
-1.9445 BELONGS TO MEIYING
-1.9445 BELONGS TO NICOLE
-1.9445 BELONGS TO OLIVIER
-1.9445 BELONGS TO SARAH
-1.9445 BELONGS TO SCAZ
-1.2041 BELONGS TO SOMEONE
-1.9445 BELONGS TO XUAN
-0.3010 BY AGENT </s>
-0.3010 BY ME </s>
-0.3010 BY SOMEONE </s>
-0.7782 CAN CANCEL </s>
-0.7782 CAN CANCEL THAT
-0.7782 CAN CANCEL WHAT
-0.9031 CAN COLLECT IT
-0.9031 CAN COLLECT OBJECT
-0.9031 CAN COLLECT THAT
-0.9031 CAN COLLECT THIS
-0.3010 CAN DO THAT
-0.3010 CAN FIND OBJECT
-0.9031 CAN GET IT
-0.9031 CAN GET OBJECT
-0.9031 CAN GET THAT
-0.9031 CAN GET THIS
-0.6021 CAN GO HOME
-0.6021 CAN GO TO
-0.6021 CAN LOOK AROUND
-0.6021 CAN LOOK FOR
-0.9031 CAN PICK IT
-0.9031 CAN PICK THAT
-0.9031 CAN PICK THIS
-0.9031 CAN PICK UP
-0.9031 CAN PUT DOWN
-0.9031 CAN PUT IT
-0.9031 CAN PUT THAT
-0.9031 CAN PUT THIS
-0.9031 CAN RELEASE IT
-0.9031 CAN RELEASE THAT
-0.9031 CAN RELEASE THIS
-0.9031 CAN RELEASE WHAT
-0.9031 CAN REPLACE IT
-0.9031 CAN REPLACE OBJECT
-0.9031 CAN REPLACE THAT
-0.9031 CAN REPLACE THIS
-0.3010 CAN RESET YOUR
-0.6021 CAN SCAN FOR
-0.6021 CAN SCAN THE
-0.9031 CAN STOP </s>
-0.9031 CAN STOP IT
-0.9031 CAN STOP THAT
-0.9031 CAN STOP WHAT
-0.9031 CAN THROW AWAY
-0.9031 CAN THROW IT
-0.9031 CAN THROW THAT
-0.9031 CAN THROW THIS
-0.9031 CAN TRASH IT
-0.9031 CAN TRASH OBJECT
-0.9031 CAN TRASH THAT
-0.9031 CAN TRASH THIS
-0.7782 CAN'T CANCEL </s>
-0.7782 CAN'T CANCEL THAT
-0.7782 CAN'T CANCEL WHAT
-0.9031 CAN'T COLLECT IT
-0.9031 CAN'T COLLECT OBJECT
-0.9031 CAN'T COLLECT THAT
-0.9031 CAN'T COLLECT THIS
-0.3010 CAN'T DO THAT
-0.3010 CAN'T FIND OBJECT
-0.9031 CAN'T GET IT
-0.9031 CAN'T GET OBJECT
-0.9031 CAN'T GET THAT
-0.9031 CAN'T GET THIS
-0.6021 CAN'T GO HOME
-0.6021 CAN'T GO TO
-0.6021 CAN'T LOOK AROUND
-0.6021 CAN'T LOOK FOR
-0.9031 CAN'T PICK IT
-0.9031 CAN'T PICK THAT
-0.9031 CAN'T PICK THIS
-0.9031 CAN'T PICK UP
-0.9031 CAN'T PUT DOWN
-0.9031 CAN'T PUT IT
-0.9031 CAN'T PUT THAT
-0.9031 CAN'T PUT THIS
-0.9031 CAN'T RELEASE IT
-0.9031 CAN'T RELEASE THAT
-0.9031 CAN'T RELEASE THIS
-0.9031 CAN'T RELEASE WHAT
-0.9031 CAN'T REPLACE IT
-0.9031 CAN'T REPLACE OBJECT
-0.9031 CAN'T REPLACE THAT
-0.9031 CAN'T REPLACE THIS
-0.3010 CAN'T RESET YOUR
-0.6021 CAN'T SCAN FOR
-0.6021 CAN'T SCAN THE
-0.9031 CAN'T STOP </s>
-0.9031 CAN'T STOP IT
-0.9031 CAN'T STOP THAT
-0.9031 CAN'T STOP WHAT
-0.9031 CAN'T THROW AWAY
-0.9031 CAN'T THROW IT
-0.9031 CAN'T THROW THAT
-0.9031 CAN'T THROW THIS
-0.9031 CAN'T TRASH IT
-0.9031 CAN'T TRASH OBJECT
-0.9031 CAN'T TRASH THAT
-0.9031 CAN'T TRASH THIS
-0.3010 CANCEL THAT </s>
-0.3010 CANCEL WHAT YOU'RE
-0.7782 CANNOT CANCEL </s>
-0.7782 CANNOT CANCEL THAT
-0.7782 CANNOT CANCEL WHAT
-0.9031 CANNOT COLLECT IT
-0.9031 CANNOT COLLECT OBJECT
-0.9031 CANNOT COLLECT THAT
-0.9031 CANNOT COLLECT THIS
-0.3010 CANNOT DO THAT
-0.3010 CANNOT FIND OBJECT
-0.9031 CANNOT GET IT
-0.9031 CANNOT GET OBJECT
-0.9031 CANNOT GET THAT
-0.9031 CANNOT GET THIS
-0.6021 CANNOT GO HOME
-0.6021 CANNOT GO TO
-0.6021 CANNOT LOOK AROUND
-0.6021 CANNOT LOOK FOR
-0.9031 CANNOT PICK IT
-0.9031 CANNOT PICK THAT
-0.9031 CANNOT PICK THIS
-0.9031 CANNOT PICK UP
-0.9031 CANNOT PUT DOWN
-0.9031 CANNOT PUT IT
-0.9031 CANNOT PUT THAT
-0.9031 CANNOT PUT THIS
-0.9031 CANNOT RELEASE IT
-0.9031 CANNOT RELEASE THAT
-0.9031 CANNOT RELEASE THIS
-0.9031 CANNOT RELEASE WHAT
-0.9031 CANNOT REPLACE IT
-0.9031 CANNOT REPLACE OBJECT
-0.9031 CANNOT REPLACE THAT
-0.9031 CANNOT REPLACE THIS
-0.3010 CANNOT RESET YOUR
-0.6021 CANNOT SCAN FOR
-0.6021 CANNOT SCAN THE
-0.9031 CANNOT STOP </s>
-0.9031 CANNOT STOP IT
-0.9031 CANNOT STOP THAT
-0.9031 CANNOT STOP WHAT
-0.9031 CANNOT THROW AWAY
-0.9031 CANNOT THROW IT
-0.9031 CANNOT THROW THAT
-0.9031 CANNOT THROW THIS
-0.9031 CANNOT TRASH IT
-0.9031 CANNOT TRASH OBJECT
-0.9031 CANNOT TRASH THAT
-0.9031 CANNOT TRASH THIS
-0.3010 CLEAN UP THE
-0.3010 CLEAR THE WORKSPACE
-0.3010 COLLECT ALL OBJECTS
-0.3010 COLLECT EVERYTHING </s>
-0.3010 COLLECT IT </s>
-0.5819 COLLECT OBJECT </s>
-1.6232 COLLECT OBJECT EIGHT
-1.6232 COLLECT OBJECT FIVE
-1.6232 COLLECT OBJECT FOUR
-1.6232 COLLECT OBJECT NINE
-1.6232 COLLECT OBJECT ONE
-1.6232 COLLECT OBJECT SEVEN
-1.6232 COLLECT OBJECT SIX
-1.6232 COLLECT OBJECT THREE
-1.6232 COLLECT OBJECT TWO
-1.6232 COLLECT OBJECT ZERO
-0.3010 COLLECT THAT </s>
-0.3010 COLLECT THIS </s>
-0.3010 DID YOU DO
-0.3010 DIDN'T YOU DO
-1.8791 DO THAT </s>
-2.3909 DO THAT ACTION
-0.3181 DO THAT IF
-2.6920 DO THAT TO
-0.3010 DOES THIS BELONG
-0.3010 DOESN'T BELONG TO
-0.7782 DON'T CANCEL </s>
-0.7782 DON'T CANCEL THAT
-0.7782 DON'T CANCEL WHAT
-0.9031 DON'T COLLECT IT
-0.9031 DON'T COLLECT OBJECT
-0.9031 DON'T COLLECT THAT
-0.9031 DON'T COLLECT THIS
-0.3010 DON'T DO THAT
-0.3010 DON'T FIND OBJECT
-0.9031 DON'T GET IT
-0.9031 DON'T GET OBJECT
-0.9031 DON'T GET THAT
-0.9031 DON'T GET THIS
-0.6021 DON'T GO HOME
-0.6021 DON'T GO TO
-0.6021 DON'T LOOK AROUND
-0.6021 DON'T LOOK FOR
-0.9031 DON'T PICK IT
-0.9031 DON'T PICK THAT
-0.9031 DON'T PICK THIS
-0.9031 DON'T PICK UP
-0.9031 DON'T PUT DOWN
-0.9031 DON'T PUT IT
-0.9031 DON'T PUT THAT
-0.9031 DON'T PUT THIS
-0.9031 DON'T RELEASE IT
-0.9031 DON'T RELEASE THAT
-0.9031 DON'T RELEASE THIS
-0.9031 DON'T RELEASE WHAT
-0.9031 DON'T REPLACE IT
-0.9031 DON'T REPLACE OBJECT
-0.9031 DON'T REPLACE THAT
-0.9031 DON'T REPLACE THIS
-0.3010 DON'T RESET YOUR
-0.6021 DON'T SCAN FOR
-0.6021 DON'T SCAN THE
-0.9031 DON'T STOP </s>
-0.9031 DON'T STOP IT
-0.9031 DON'T STOP THAT
-0.9031 DON'T STOP WHAT
-0.9031 DON'T THROW AWAY
-0.9031 DON'T THROW IT
-0.9031 DON'T THROW THAT
-0.9031 DON'T THROW THIS
-0.9031 DON'T TRASH IT
-0.9031 DON'T TRASH OBJECT
-0.9031 DON'T TRASH THAT
-0.9031 DON'T TRASH THIS
-0.3010 DOWN WHAT YOU'RE
-0.3010 EIGHT EIGHT </s>
-0.3010 EIGHT FIVE </s>
-0.3010 EIGHT FOUR </s>
-0.3010 EIGHT NINE </s>
-0.3010 EIGHT ONE </s>
-0.3010 EIGHT SEVEN </s>
-0.3010 EIGHT SIX </s>
-0.3010 EIGHT THREE </s>
-0.3010 EIGHT TWO </s>
-0.3010 EIGHT ZERO </s>
-0.5819 FIND OBJECT </s>
-1.6232 FIND OBJECT EIGHT
-1.6232 FIND OBJECT FIVE
-1.6232 FIND OBJECT FOUR
-1.6232 FIND OBJECT NINE
-1.6232 FIND OBJECT ONE
-1.6232 FIND OBJECT SEVEN
-1.6232 FIND OBJECT SIX
-1.6232 FIND OBJECT THREE
-1.6232 FIND OBJECT TWO
-1.6232 FIND OBJECT ZERO
-0.3010 FIVE EIGHT </s>
-0.3010 FIVE FIVE </s>
-0.3010 FIVE FOUR </s>
-0.3010 FIVE NINE </s>
-0.3010 FIVE ONE </s>
-0.3010 FIVE SEVEN </s>
-0.3010 FIVE SIX </s>
-0.3010 FIVE THREE </s>
-0.3010 FIVE TWO </s>
-0.3010 FIVE ZERO </s>
-0.5819 FOR OBJECT </s>
-1.6232 FOR OBJECT EIGHT
-1.6232 FOR OBJECT FIVE
-1.6232 FOR OBJECT FOUR
-1.6232 FOR OBJECT NINE
-1.6232 FOR OBJECT ONE
-1.6232 FOR OBJECT SEVEN
-1.6232 FOR OBJECT SIX
-1.6232 FOR OBJECT THREE
-1.6232 FOR OBJECT TWO
-1.6232 FOR OBJECT ZERO
-0.3010 FOR OBJECTS </s>
-1.7877 FORBIDDEN TO CANCEL
-1.6628 FORBIDDEN TO COLLECT
-0.6214 FORBIDDEN TO DO
-2.2648 FORBIDDEN TO FIND
-1.6628 FORBIDDEN TO GET
-1.9638 FORBIDDEN TO GO
-1.9638 FORBIDDEN TO LOOK
-1.6628 FORBIDDEN TO PICK
-1.6628 FORBIDDEN TO PUT
-1.6628 FORBIDDEN TO RELEASE
-1.6628 FORBIDDEN TO REPLACE
-1.9638 FORBIDDEN TO RESET
-1.9638 FORBIDDEN TO SCAN
-1.6628 FORBIDDEN TO STOP
-1.6628 FORBIDDEN TO THROW
-1.6628 FORBIDDEN TO TRASH
-0.3010 FOUR EIGHT </s>
-0.3010 FOUR FIVE </s>
-0.3010 FOUR FOUR </s>
-0.3010 FOUR NINE </s>
-0.3010 FOUR ONE </s>
-0.3010 FOUR SEVEN </s>
-0.3010 FOUR SIX </s>
-0.3010 FOUR THREE </s>
-0.3010 FOUR TWO </s>
-0.3010 FOUR ZERO </s>
-0.3010 GET IT </s>
-0.5819 GET OBJECT </s>
-1.6232 GET OBJECT EIGHT
-1.6232 GET OBJECT FIVE
-1.6232 GET OBJECT FOUR
-1.6232 GET OBJECT NINE
-1.6232 GET OBJECT ONE
-1.6232 GET OBJECT SEVEN
-1.6232 GET OBJECT SIX
-1.6232 GET OBJECT THREE
-1.6232 GET OBJECT TWO
-1.6232 GET OBJECT ZERO
-0.3010 GET THAT </s>
-0.3010 GET THIS </s>
-0.3010 GO HOME </s>
-0.3010 GO TO THE
-0.3010 HOME AREA </s>
-0.3010 HOME POSITION </s>
-1.3424 I AM ADITI
-1.3424 I AM ALESSANDRO
-1.3424 I AM BAXTER
-1.3424 I AM CORINA
-1.3424 I AM JAKE
-1.3424 I AM MEIYING
-1.3424 I AM NICOLE
-1.3424 I AM OLIVIER
-1.3424 I AM SARAH
-1.3424 I AM SCAZ
-1.3424 I AM XUAN
-0.3010 I'M ADITI </s>
-0.3010 I'M ALESSANDRO </s>
-0.3010 I'M BAXTER </s>
-0.3010 I'M CORINA </s>
-0.3010 I'M JAKE </s>
-0.3010 I'M MEIYING </s>
-0.3010 I'M NICOLE </s>
-0.3010 I'M OLIVIER </s>
-0.3010 I'M SARAH </s>
-0.3010 I'M SCAZ </s>
-0.3010 I'M XUAN </s>
-1.0969 IF IT BELONGS
-1.2218 IF IT DOESN'T
-0.4437 IF IT ISN'T
-0.7112 IF IT'S A
-1.5563 IF IT'S BLUE
-1.5563 IF IT'S GREEN
-1.2553 IF IT'S IN
-1.5563 IF IT'S MINE
-0.8573 IF IT'S OWNED
-1.5563 IF IT'S RED
-0.6021 IN THE HOME
-0.6021 IN THE TRASH
-0.3010 IS MINE </s>
-1.3010 IS OBJECT EIGHT
-1.3010 IS OBJECT FIVE
-1.3010 IS OBJECT FOUR
-1.3010 IS OBJECT NINE
-1.3010 IS OBJECT ONE
-1.3010 IS OBJECT SEVEN
-1.3010 IS OBJECT SIX
-1.3010 IS OBJECT THREE
-1.3010 IS OBJECT TWO
-1.3010 IS OBJECT ZERO
-0.3010 IS THE OWNER
-0.3010 IS THIS </s>
-1.1461 ISN'T A BLOCK
-1.1461 ISN'T A CHARGER
-1.1461 ISN'T A LAPTOP
-1.1461 ISN'T A MUG
-1.1461 ISN'T A PEN
-1.1461 ISN'T A WALLET
-1.1461 ISN'T A WRAPPER
-0.3010 ISN'T BLUE </s>
-0.3010 ISN'T GREEN </s>
-0.3010 ISN'T IN THE
-0.3010 ISN'T MINE </s>
-1.0000 ISN'T OWNED </s>
-0.3979 ISN'T OWNED BY
-0.3010 ISN'T RED </s>
-0.3010 IT AWAY </s>
-0.3010 IT BELONGS TO
-0.3010 IT DOESN'T BELONG
-0.3010 IT DOWN </s>
-0.7112 IT ISN'T A
-1.5563 IT ISN'T BLUE
-1.5563 IT ISN'T GREEN
-1.2553 IT ISN'T IN
-1.5563 IT ISN'T MINE
-0.8573 IT ISN'T OWNED
-1.5563 IT ISN'T RED
-0.3010 IT UP </s>
-1.1461 IT'S A BLOCK
-1.1461 IT'S A CHARGER
-1.1461 IT'S A LAPTOP
-1.1461 IT'S A MUG
-1.1461 IT'S A PEN
-1.1461 IT'S A WALLET
-1.1461 IT'S A WRAPPER
-0.3010 IT'S BLUE </s>
-0.3010 IT'S GREEN </s>
-0.3010 IT'S IN THE
-0.3010 IT'S MINE </s>
-0.3010 IT'S OKAY TO
-1.0000 IT'S OWNED </s>
-0.3979 IT'S OWNED BY
-0.3010 IT'S RED </s>
-0.3010 LOOK AROUND </s>
-0.3010 LOOK FOR OBJECT
-0.7782 MAY CANCEL </s>
-0.7782 MAY CANCEL THAT
-0.7782 MAY CANCEL WHAT
-0.9031 MAY COLLECT IT
-0.9031 MAY COLLECT OBJECT
-0.9031 MAY COLLECT THAT
-0.9031 MAY COLLECT THIS
-0.3010 MAY DO THAT
-0.3010 MAY FIND OBJECT
-0.9031 MAY GET IT
-0.9031 MAY GET OBJECT
-0.9031 MAY GET THAT
-0.9031 MAY GET THIS
-0.6021 MAY GO HOME
-0.6021 MAY GO TO
-0.6021 MAY LOOK AROUND
-0.6021 MAY LOOK FOR
-1.7877 MAY NOT CANCEL
-1.6628 MAY NOT COLLECT
-0.6214 MAY NOT DO
-2.2648 MAY NOT FIND
-1.6628 MAY NOT GET
-1.9638 MAY NOT GO
-1.9638 MAY NOT LOOK
-1.6628 MAY NOT PICK
-1.6628 MAY NOT PUT
-1.6628 MAY NOT RELEASE
-1.6628 MAY NOT REPLACE
-1.9638 MAY NOT RESET
-1.9638 MAY NOT SCAN
-1.6628 MAY NOT STOP
-1.6628 MAY NOT THROW
-1.6628 MAY NOT TRASH
-0.9031 MAY PICK IT
-0.9031 MAY PICK THAT
-0.9031 MAY PICK THIS
-0.9031 MAY PICK UP
-0.9031 MAY PUT DOWN
-0.9031 MAY PUT IT
-0.9031 MAY PUT THAT
-0.9031 MAY PUT THIS
-0.9031 MAY RELEASE IT
-0.9031 MAY RELEASE THAT
-0.9031 MAY RELEASE THIS
-0.9031 MAY RELEASE WHAT
-0.9031 MAY REPLACE IT
-0.9031 MAY REPLACE OBJECT
-0.9031 MAY REPLACE THAT
-0.9031 MAY REPLACE THIS
-0.3010 MAY RESET YOUR
-0.6021 MAY SCAN FOR
-0.6021 MAY SCAN THE
-0.9031 MAY STOP </s>
-0.9031 MAY STOP IT
-0.9031 MAY STOP THAT
-0.9031 MAY STOP WHAT
-0.9031 MAY THROW AWAY
-0.9031 MAY THROW IT
-0.9031 MAY THROW THAT
-0.9031 MAY THROW THIS
-0.9031 MAY TRASH IT
-0.9031 MAY TRASH OBJECT
-0.9031 MAY TRASH THAT
-0.9031 MAY TRASH THIS
-0.3010 NINE EIGHT </s>
-0.3010 NINE FIVE </s>
-0.3010 NINE FOUR </s>
-0.3010 NINE NINE </s>
-0.3010 NINE ONE </s>
-0.3010 NINE SEVEN </s>
-0.3010 NINE SIX </s>
-0.3010 NINE THREE </s>
-0.3010 NINE TWO </s>
-0.3010 NINE ZERO </s>
-0.7782 NO BAXTER </s>
-0.7782 NO BAXTER STOP
-0.7782 NO BAXTER THAT'S
-0.3010 NOT ALLOWED TO
-0.7782 NOT CANCEL </s>
-0.7782 NOT CANCEL THAT
-0.7782 NOT CANCEL WHAT
-0.9031 NOT COLLECT IT
-0.9031 NOT COLLECT OBJECT
-0.9031 NOT COLLECT THAT
-0.9031 NOT COLLECT THIS
-0.3010 NOT DO THAT
-0.3010 NOT FIND OBJECT
-0.3010 NOT FORBIDDEN TO
-0.9031 NOT GET IT
-0.9031 NOT GET OBJECT
-0.9031 NOT GET THAT
-0.9031 NOT GET THIS
-0.6021 NOT GO HOME
-0.6021 NOT GO TO
-0.6021 NOT LOOK AROUND
-0.6021 NOT LOOK FOR
-0.3010 NOT MINE </s>
-0.9031 NOT PICK IT
-0.9031 NOT PICK THAT
-0.9031 NOT PICK THIS
-0.9031 NOT PICK UP
-0.9031 NOT PUT DOWN
-0.9031 NOT PUT IT
-0.9031 NOT PUT THAT
-0.9031 NOT PUT THIS
-0.9031 NOT RELEASE IT
-0.9031 NOT RELEASE THAT
-0.9031 NOT RELEASE THIS
-0.9031 NOT RELEASE WHAT
-0.9031 NOT REPLACE IT
-0.9031 NOT REPLACE OBJECT
-0.9031 NOT REPLACE THAT
-0.9031 NOT REPLACE THIS
-0.3010 NOT RESET YOUR
-0.6021 NOT SCAN FOR
-0.6021 NOT SCAN THE
-0.9031 NOT STOP </s>
-0.9031 NOT STOP IT
-0.9031 NOT STOP THAT
-0.9031 NOT STOP WHAT
-0.9031 NOT THROW AWAY
-0.9031 NOT THROW IT
-0.9031 NOT THROW THAT
-0.9031 NOT THROW THIS
-0.9031 NOT TRASH IT
-0.9031 NOT TRASH OBJECT
-0.9031 NOT TRASH THAT
-0.9031 NOT TRASH THIS
-0.3010 OBJECT EIGHT </s>
-0.3010 OBJECT FIVE </s>
-0.3010 OBJECT FOUR </s>
-0.3010 OBJECT IS THIS
-0.3010 OBJECT NINE </s>
-0.3010 OBJECT ONE </s>
-0.3010 OBJECT SEVEN </s>
-0.3010 OBJECT SIX </s>
-0.3010 OBJECT THREE </s>
-0.3010 OBJECT TWO </s>
-0.3010 OBJECT ZERO </s>
-1.3010 OF OBJECT EIGHT
-1.3010 OF OBJECT FIVE
-1.3010 OF OBJECT FOUR
-1.3010 OF OBJECT NINE
-1.3010 OF OBJECT ONE
-1.3010 OF OBJECT SEVEN
-1.3010 OF OBJECT SIX
-1.3010 OF OBJECT THREE
-1.3010 OF OBJECT TWO
-1.3010 OF OBJECT ZERO
-0.3010 OF THIS </s>
-1.7877 OKAY TO CANCEL
-1.6628 OKAY TO COLLECT
-0.6214 OKAY TO DO
-2.2648 OKAY TO FIND
-1.6628 OKAY TO GET
-1.9638 OKAY TO GO
-1.9638 OKAY TO LOOK
-1.6628 OKAY TO PICK
-1.6628 OKAY TO PUT
-1.6628 OKAY TO RELEASE
-1.6628 OKAY TO REPLACE
-1.9638 OKAY TO RESET
-1.9638 OKAY TO SCAN
-1.6628 OKAY TO STOP
-1.6628 OKAY TO THROW
-1.6628 OKAY TO TRASH
-0.3010 ONE EIGHT </s>
-0.3010 ONE FIVE </s>
-0.3010 ONE FOUR </s>
-0.3010 ONE NINE </s>
-0.3010 ONE ONE </s>
-0.3010 ONE SEVEN </s>
-0.3010 ONE SIX </s>
-0.3010 ONE THREE </s>
-0.3010 ONE TWO </s>
-0.3010 ONE ZERO </s>
-0.9031 OWNED BY </s>
-0.9031 OWNED BY AGENT
-0.9031 OWNED BY ME
-0.9031 OWNED BY SOMEONE
-0.3424 OWNER OF OBJECT
-1.3424 OWNER OF THIS
-1.3010 OWNS OBJECT EIGHT
-1.3010 OWNS OBJECT FIVE
-1.3010 OWNS OBJECT FOUR
-1.3010 OWNS OBJECT NINE
-1.3010 OWNS OBJECT ONE
-1.3010 OWNS OBJECT SEVEN
-1.3010 OWNS OBJECT SIX
-1.3010 OWNS OBJECT THREE
-1.3010 OWNS OBJECT TWO
-1.3010 OWNS OBJECT ZERO
-0.3010 OWNS THIS </s>
-0.3010 PICK IT UP
-0.3010 PICK THAT UP
-0.3010 PICK THIS UP
-0.3010 PICK UP OBJECT
-0.3010 PUT DOWN WHAT
-0.3010 PUT IT DOWN
-0.3010 PUT THAT DOWN
-0.3010 PUT THIS DOWN
-0.3010 RELEASE IT </s>
-0.3010 RELEASE THAT </s>
-0.3010 RELEASE THIS </s>
-0.3010 RELEASE WHAT YOU'RE
-0.3010 REPLACE IT </s>
-0.5819 REPLACE OBJECT </s>
-1.6232 REPLACE OBJECT EIGHT
-1.6232 REPLACE OBJECT FIVE
-1.6232 REPLACE OBJECT FOUR
-1.6232 REPLACE OBJECT NINE
-1.6232 REPLACE OBJECT ONE
-1.6232 REPLACE OBJECT SEVEN
-1.6232 REPLACE OBJECT SIX
-1.6232 REPLACE OBJECT THREE
-1.6232 REPLACE OBJECT TWO
-1.6232 REPLACE OBJECT ZERO
-0.3010 REPLACE THAT </s>
-0.3010 REPLACE THIS </s>
-0.3010 RESET AGENTS </s>
-0.3010 RESET CLAIMS </s>
-0.3010 RESET EVERYTHING </s>
-0.3010 RESET OBJECTS </s>
-0.3010 RESET PERMISSIONS </s>
-0.3010 RESET RULES </s>
-0.6021 RESET YOUR ARM
-0.6021 RESET YOUR POSITION
-0.3010 SCAN FOR OBJECTS
-0.3010 SCAN THE WORKSPACE
-0.3010 SEVEN EIGHT </s>
-0.3010 SEVEN FIVE </s>
-0.3010 SEVEN FOUR </s>
-0.3010 SEVEN NINE </s>
-0.3010 SEVEN ONE </s>
-0.3010 SEVEN SEVEN </s>
-0.3010 SEVEN SIX </s>
-0.3010 SEVEN THREE </s>
-0.3010 SEVEN TWO </s>
-0.3010 SEVEN ZERO </s>
-0.3010 SIX EIGHT </s>
-0.3010 SIX FIVE </s>
-0.3010 SIX FOUR </s>
-0.3010 SIX NINE </s>
-0.3010 SIX ONE </s>
-0.3010 SIX SEVEN </s>
-0.3010 SIX SIX </s>
-0.3010 SIX THREE </s>
-0.3010 SIX TWO </s>
-0.3010 SIX ZERO </s>
-0.3010 STOP IT </s>
-0.3010 STOP THAT </s>
-0.3010 STOP WHAT YOU'RE
-0.6021 THAT ACTION </s>
-0.6021 THAT ACTION TO
-0.3010 THAT AWAY </s>
-0.3010 THAT BELONGS TO
-0.3010 THAT DOESN'T BELONG
-0.3010 THAT DOWN </s>
-0.5366 THAT IF IT
-0.6792 THAT IF IT'S
-0.3010 THAT IS MINE
-0.3010 THAT ISN'T MINE
-0.3010 THAT TO THIS
-0.3010 THAT UP </s>
-0.3010 THAT'S MINE </s>
-0.3010 THAT'S NOT MINE
-0.4901 THE HOME AREA
-0.7533 THE HOME POSITION
-0.3010 THE OWNER OF
-0.3010 THE TRASH AREA
-0.3010 THE WORKSPACE </s>
-0.3010 THIS AWAY </s>
-0.3010 THIS BELONG TO
-0.3010 THIS BELONGS TO
-0.3010 THIS DOESN'T BELONG
-0.3010 THIS DOWN </s>
-0.3010 THIS IS MINE
-0.3010 THIS ISN'T MINE
-0.3010 THIS OBJECT </s>
-0.3010 THIS UP </s>
-0.3010 THREE EIGHT </s>
-0.3010 THREE FIVE </s>
-0.3010 THREE FOUR </s>
-0.3010 THREE NINE </s>
-0.3010 THREE ONE </s>
-0.3010 THREE SEVEN </s>
-0.3010 THREE SIX </s>
-0.3010 THREE THREE </s>
-0.3010 THREE TWO </s>
-0.3010 THREE ZERO </s>
-0.3010 THROW AWAY OBJECT
-0.3010 THROW IT AWAY
-0.3010 THROW THAT AWAY
-0.3010 THROW THIS AWAY
-0.3010 TO ADITI </s>
-0.7510 TO AGENT </s>
-1.4914 TO AGENT EIGHT
-1.4914 TO AGENT FIVE
-1.4914 TO AGENT FOUR
-1.4914 TO AGENT NINE
-1.4914 TO AGENT ONE
-1.4914 TO AGENT SEVEN
-1.4914 TO AGENT SIX
-1.4914 TO AGENT THREE
-1.4914 TO AGENT TWO
-1.4914 TO AGENT ZERO
-0.3010 TO ALESSANDRO </s>
-0.3010 TO BAXTER </s>
-0.7782 TO CANCEL </s>
-0.7782 TO CANCEL THAT
-0.7782 TO CANCEL WHAT
-0.9031 TO COLLECT IT
-0.9031 TO COLLECT OBJECT
-0.9031 TO COLLECT THAT
-0.9031 TO COLLECT THIS
-0.3010 TO CORINA </s>
-0.3010 TO DO THAT
-0.3010 TO FIND OBJECT
-0.9031 TO GET IT
-0.9031 TO GET OBJECT
-0.9031 TO GET THAT
-0.9031 TO GET THIS
-0.6021 TO GO HOME
-0.6021 TO GO TO
-0.3010 TO JAKE </s>
-0.6021 TO LOOK AROUND
-0.6021 TO LOOK FOR
-0.3010 TO ME </s>
-0.3010 TO MEIYING </s>
-0.3010 TO NICOLE </s>
-0.3010 TO OLIVIER </s>
-0.9031 TO PICK IT
-0.9031 TO PICK THAT
-0.9031 TO PICK THIS
-0.9031 TO PICK UP
-0.9031 TO PUT DOWN
-0.9031 TO PUT IT
-0.9031 TO PUT THAT
-0.9031 TO PUT THIS
-0.9031 TO RELEASE IT
-0.9031 TO RELEASE THAT
-0.9031 TO RELEASE THIS
-0.9031 TO RELEASE WHAT
-0.9031 TO REPLACE IT
-0.9031 TO REPLACE OBJECT
-0.9031 TO REPLACE THAT
-0.9031 TO REPLACE THIS
-0.3010 TO RESET YOUR
-0.3010 TO SARAH </s>
-0.6021 TO SCAN FOR
-0.6021 TO SCAN THE
-0.3010 TO SCAZ </s>
-0.3010 TO SOMEONE </s>
-0.9031 TO STOP </s>
-0.9031 TO STOP IT
-0.9031 TO STOP THAT
-0.9031 TO STOP WHAT
-0.3010 TO THE HOME
-0.3010 TO THIS OBJECT
-0.9031 TO THROW AWAY
-0.9031 TO THROW IT
-0.9031 TO THROW THAT
-0.9031 TO THROW THIS
-0.9031 TO TRASH IT
-0.9031 TO TRASH OBJECT
-0.9031 TO TRASH THAT
-0.9031 TO TRASH THIS
-0.3010 TO XUAN </s>
-0.3010 TRASH ALL OBJECTS
-0.3010 TRASH AREA </s>
-0.3010 TRASH EVERYTHING </s>
-0.3010 TRASH IT </s>
-0.5819 TRASH OBJECT </s>
-1.6232 TRASH OBJECT EIGHT
-1.6232 TRASH OBJECT FIVE
-1.6232 TRASH OBJECT FOUR
-1.6232 TRASH OBJECT NINE
-1.6232 TRASH OBJECT ONE
-1.6232 TRASH OBJECT SEVEN
-1.6232 TRASH OBJECT SIX
-1.6232 TRASH OBJECT THREE
-1.6232 TRASH OBJECT TWO
-1.6232 TRASH OBJECT ZERO
-0.3010 TRASH THAT </s>
-0.3010 TRASH THIS </s>
-0.3010 TWO EIGHT </s>
-0.3010 TWO FIVE </s>
-0.3010 TWO FOUR </s>
-0.3010 TWO NINE </s>
-0.3010 TWO ONE </s>
-0.3010 TWO SEVEN </s>
-0.3010 TWO SIX </s>
-0.3010 TWO THREE </s>
-0.3010 TWO TWO </s>
-0.3010 TWO ZERO </s>
-0.5819 UP OBJECT </s>
-1.6232 UP OBJECT EIGHT
-1.6232 UP OBJECT FIVE
-1.6232 UP OBJECT FOUR
-1.6232 UP OBJECT NINE
-1.6232 UP OBJECT ONE
-1.6232 UP OBJECT SEVEN
-1.6232 UP OBJECT SIX
-1.6232 UP OBJECT THREE
-1.6232 UP OBJECT TWO
-1.6232 UP OBJECT ZERO
-0.3010 UP THE WORKSPACE
-0.6021 WHAT YOU'RE DOING
-0.6021 WHAT YOU'RE HOLDING
-0.3010 WHO DOES THIS
-0.3010 WHO IS THE
-0.3424 WHO OWNS OBJECT
-1.3424 WHO OWNS THIS
-0.3424 WHOSE IS OBJECT
-1.3424 WHOSE IS THIS
-0.3010 WHOSE OBJECT IS
-0.3010 WHY DID YOU
-0.3010 WHY DIDN'T YOU
-1.7877 YOU CAN CANCEL
-1.6628 YOU CAN COLLECT
-0.6214 YOU CAN DO
-2.2648 YOU CAN FIND
-1.6628 YOU CAN GET
-1.9638 YOU CAN GO
-1.9638 YOU CAN LOOK
-1.6628 YOU CAN PICK
-1.6628 YOU CAN PUT
-1.6628 YOU CAN RELEASE
-1.6628 YOU CAN REPLACE
-1.9638 YOU CAN RESET
-1.9638 YOU CAN SCAN
-1.6628 YOU CAN STOP
-1.6628 YOU CAN THROW
-1.6628 YOU CAN TRASH
-1.7877 YOU CAN'T CANCEL
-1.6628 YOU CAN'T COLLECT
-0.6214 YOU CAN'T DO
-2.2648 YOU CAN'T FIND
-1.6628 YOU CAN'T GET
-1.9638 YOU CAN'T GO
-1.9638 YOU CAN'T LOOK
-1.6628 YOU CAN'T PICK
-1.6628 YOU CAN'T PUT
-1.6628 YOU CAN'T RELEASE
-1.6628 YOU CAN'T REPLACE
-1.9638 YOU CAN'T RESET
-1.9638 YOU CAN'T SCAN
-1.6628 YOU CAN'T STOP
-1.6628 YOU CAN'T THROW
-1.6628 YOU CAN'T TRASH
-1.7877 YOU CANNOT CANCEL
-1.6628 YOU CANNOT COLLECT
-0.6214 YOU CANNOT DO
-2.2648 YOU CANNOT FIND
-1.6628 YOU CANNOT GET
-1.9638 YOU CANNOT GO
-1.9638 YOU CANNOT LOOK
-1.6628 YOU CANNOT PICK
-1.6628 YOU CANNOT PUT
-1.6628 YOU CANNOT RELEASE
-1.6628 YOU CANNOT REPLACE
-1.9638 YOU CANNOT RESET
-1.9638 YOU CANNOT SCAN
-1.6628 YOU CANNOT STOP
-1.6628 YOU CANNOT THROW
-1.6628 YOU CANNOT TRASH
-0.3010 YOU DO THAT
-2.0887 YOU MAY CANCEL
-1.9638 YOU MAY COLLECT
-0.9224 YOU MAY DO
-2.5658 YOU MAY FIND
-1.9638 YOU MAY GET
-2.2648 YOU MAY GO
-2.2648 YOU MAY LOOK
-0.6021 YOU MAY NOT
-1.9638 YOU MAY PICK
-1.9638 YOU MAY PUT
-1.9638 YOU MAY RELEASE
-1.9638 YOU MAY REPLACE
-2.2648 YOU MAY RESET
-2.2648 YOU MAY SCAN
-1.9638 YOU MAY STOP
-1.9638 YOU MAY THROW
-1.9638 YOU MAY TRASH
-0.3010 YOU'RE ALLOWED TO
-0.3010 YOU'RE DOING </s>
-0.3010 YOU'RE FORBIDDEN TO
-0.3010 YOU'RE HOLDING </s>
-0.6021 YOU'RE NOT ALLOWED
-0.6021 YOU'RE NOT FORBIDDEN
-0.3010 YOUR ARM </s>
-0.3010 YOUR POSITION </s>

\end\
