Language model created by QuickLM on Fri Apr  6 13:37:39 EDT 2018
Copyright (c) 1996-2010 Carnegie Mellon University and Alexander I. Rudnicky

The model is in standard ARPA format, designed by Doug Paul while he was at MITRE.

The code that was used to produce this language model is available in Open Source.
Please visit http://www.speech.cs.cmu.edu/tools/ for more information

The (fixed) discount mass is 0.5. The backoffs are computed using the ratio method.
This model based on a corpus of 356 sentences and 113 words

\data\
ngram 1=113
ngram 2=444
ngram 3=648

\1-grams:
-1.0265 </s> -0.3010
-1.0265 <s> -0.2135
-2.1308 A -0.2970
-2.9759 ACTION -0.2542
-3.2769 ADITI -0.2581
-2.3227 AGENT -0.2307
-3.5780 AGENTS -0.2581
-3.2769 ALESSANDRO -0.2581
-3.2769 ALL -0.3006
-2.5780 AM -0.2987
-2.0216 AND -0.2873
-2.6749 AREA -0.2535
-3.5780 ARM -0.2581
-3.5780 AROUND -0.2581
-2.6749 AWAY -0.2549
-2.7998 BAXTER -0.2570
-2.4988 BELONG -0.2975
-2.4988 BELONGS -0.2975
-2.8790 BLOCK -0.2535
-2.8790 BLUE -0.2535
-2.4988 BY -0.2533
-2.7329 CAN -0.2939
-2.6749 CAN'T -0.2502
-3.1008 CANCEL -0.2524
-2.8790 CHARGER -0.2535
-3.5780 CLAIMS -0.2581
-3.5780 CLEAN -0.3000
-3.5780 CLEAR -0.2994
-2.5780 COLLECT -0.2821
-3.2769 CORINA -0.2581
-2.5366 DID -0.2968
-2.5366 DIDN'T -0.2968
-2.4318 DO -0.2963
-3.5780 DOES -0.2970
-2.6237 DOESN'T -0.2997
-3.2769 DOING -0.2581
-3.2769 DOSEN'T -0.2997
-2.6749 DOWN -0.2576
-2.2355 EIGHT -0.2307
-3.1008 EVERYTHING -0.2581
-3.5780 FIND -0.2982
-2.2355 FIVE -0.2307
-3.5780 FOR -0.3006
-2.2355 FOUR -0.2307
-2.9759 GET -0.2827
-3.2769 GO -0.2968
-2.8790 GREEN -0.2535
-3.2769 HOLDING -0.2581
-2.7998 HOME -0.2569
-2.5780 I -0.2999
-1.5061 IF -0.2467
-2.6749 IN -0.2994
-2.7329 IS -0.2912
-2.0216 ISN'T -0.2920
-1.8376 IT -0.2473
-2.0465 IT'S -0.2920
-3.2769 JAKE -0.2581
-2.8790 LAPTOP -0.2535
-3.5780 LOOK -0.3009
-2.4988 ME -0.2535
-3.2769 MEIYING -0.2581
-2.5366 MINE -0.2535
-2.8790 MUG -0.2535
-3.2769 NICOLE -0.2581
-2.2355 NINE -0.2307
-3.1008 NO -0.3003
-2.1800 OBJECT -0.2297
-2.9759 OBJECTS -0.2581
-3.2769 OF -0.2941
-3.2769 OLIVIER -0.2581
-2.2355 ONE -0.2307
-2.3738 OWNED -0.2520
-3.2769 OWNER -0.3008
-3.2769 OWNS -0.2941
-2.8790 PEN -0.2535
-3.5780 PERMISSIONS -0.2581
-2.6749 PICK -0.2847
-3.2769 POSITION -0.2581
-2.6749 PUT -0.2848
-2.8790 RED -0.2535
-2.9759 RELEASE -0.2853
-2.9759 REPLACE -0.2827
-2.6749 RESET -0.2995
-3.5780 RULES -0.2581
-3.2769 SARAH -0.2581
-3.2769 SCAN -0.2993
-3.2769 SCAZ -0.2581
-2.2355 SEVEN -0.2307
-2.2355 SIX -0.2307
-2.6749 SOMEONE -0.2535
-2.7998 STOP -0.2453
-1.9652 THAT -0.2312
-3.1008 THAT'S -0.2998
-2.4318 THE -0.2982
-2.0339 THIS -0.2419
-2.2355 THREE -0.2307
-2.6749 THROW -0.2848
-2.0866 TO -0.2470
-2.4318 TRASH -0.2812
-2.2355 TWO -0.2307
-2.6237 UP -0.2532
-2.8790 WALLET -0.2535
-2.9759 WHAT -0.3006
-2.8790 WHO -0.2999
-3.1008 WHOSE -0.2973
-2.2355 WHY -0.2985
-3.1008 WORKSPACE -0.2581
-2.8790 WRAPPER -0.2535
-3.2769 XUAN -0.2581
-2.0097 YOU -0.2483
-2.9759 YOU'RE -0.3006
-3.2769 YOUR -0.3007
-2.4988 ZERO -0.2581

\2-grams:
-2.8525 <s> ADITI 0.0000
-1.8525 <s> AGENT -0.1597
-2.8525 <s> ALESSANDRO 0.0000
-2.3754 <s> BAXTER 0.0000
-2.8525 <s> BLOCK -0.1461
-2.8525 <s> BLUE -0.1461
-2.3754 <s> CANCEL 0.0000
-2.8525 <s> CHARGER -0.1461
-2.8525 <s> CLEAN 0.0000
-2.8525 <s> CLEAR 0.0000
-2.0743 <s> COLLECT 0.0000
-2.8525 <s> CORINA 0.0000
-1.8111 <s> EIGHT -0.0000
-2.8525 <s> FIND 0.0000
-1.8111 <s> FIVE 0.0000
-1.8111 <s> FOUR 0.0000
-2.2504 <s> GET 0.0000
-2.5514 <s> GO 0.0000
-2.8525 <s> GREEN -0.1461
-1.8525 <s> I 0.0000
-0.9494 <s> IF -0.1212
-2.8525 <s> JAKE 0.0000
-2.8525 <s> LAPTOP -0.1461
-2.8525 <s> LOOK 0.0000
-2.8525 <s> MEIYING 0.0000
-2.8525 <s> MUG -0.1461
-2.8525 <s> NICOLE 0.0000
-1.8111 <s> NINE 0.0000
-2.3754 <s> NO 0.0000
-1.8525 <s> OBJECT -0.2041
-2.8525 <s> OLIVIER 0.0000
-1.8111 <s> ONE -0.0000
-2.8525 <s> PEN -0.1461
-2.2504 <s> PICK 0.0000
-2.2504 <s> PUT 0.0000
-2.8525 <s> RED -0.1461
-2.2504 <s> RELEASE 0.0000
-2.2504 <s> REPLACE 0.0000
-1.9494 <s> RESET 0.0000
-2.8525 <s> SARAH 0.0000
-2.5514 <s> SCAN 0.0000
-2.8525 <s> SCAZ 0.0000
-1.8111 <s> SEVEN 0.0000
-1.8111 <s> SIX 0.0000
-2.2504 <s> STOP 0.0000
-2.0074 <s> THAT -0.2623
-2.8525 <s> THAT'S 0.0000
-1.9494 <s> THIS -0.2483
-1.8111 <s> THREE 0.0000
-2.2504 <s> THROW 0.0000
-2.0743 <s> TRASH -0.1091
-1.8111 <s> TWO 0.0000
-2.8525 <s> WALLET -0.1461
-2.1535 <s> WHO 0.0000
-2.3754 <s> WHOSE 0.0000
-1.5101 <s> WHY 0.0000
-2.8525 <s> WRAPPER -0.1461
-2.8525 <s> XUAN 0.0000
-1.6764 <s> YOU -0.2027
-2.8525 <s> ZERO 0.0000
-1.1461 A BLOCK 0.0000
-1.1461 A CHARGER 0.0000
-1.1461 A LAPTOP 0.0000
-1.1461 A MUG 0.0000
-1.1461 A PEN 0.0000
-1.1461 A WALLET 0.0000
-1.1461 A WRAPPER 0.0000
-0.6021 ACTION </s> -0.3010
-0.6021 ACTION TO -0.2721
-0.3010 ADITI </s> -0.3010
-0.6532 AGENT </s> -0.3010
-1.5563 AGENT EIGHT -0.1627
-1.5563 AGENT FIVE -0.1627
-1.5563 AGENT FOUR -0.1627
-1.5563 AGENT NINE -0.1627
-1.5563 AGENT ONE -0.1627
-1.5563 AGENT SEVEN -0.1627
-1.5563 AGENT SIX -0.1627
-1.5563 AGENT THREE -0.1627
-1.5563 AGENT TWO -0.1627
-1.5563 AGENT ZERO 0.0000
-0.3010 AGENTS </s> -0.3010
-0.3010 ALESSANDRO </s> -0.3010
-0.3010 ALL OBJECTS 0.0000
-1.3010 AM ADITI 0.0000
-1.3010 AM ALESSANDRO 0.0000
-1.3010 AM CORINA 0.0000
-1.3010 AM JAKE 0.0000
-1.3010 AM MEIYING 0.0000
-1.3010 AM NICOLE 0.0000
-1.3010 AM OLIVIER 0.0000
-1.3010 AM SARAH 0.0000
-1.3010 AM SCAZ 0.0000
-1.3010 AM XUAN 0.0000
-0.3010 AND IF -0.2248
-0.6021 AREA </s> -0.3010
-0.6021 AREA AND 0.0000
-0.3010 ARM </s> -0.3010
-0.3010 AROUND </s> -0.3010
-0.3590 AWAY </s> -0.3010
-1.2041 AWAY OBJECT -0.1584
-0.7782 BAXTER </s> -0.3010
-0.7782 BAXTER STOP -0.1761
-0.7782 BAXTER THAT'S 0.0000
-0.3010 BELONG TO -0.0649
-0.3010 BELONGS TO -0.0649
-0.5229 BLOCK </s> -0.3010
-0.6990 BLOCK AND 0.0000
-0.5229 BLUE </s> -0.3010
-0.6990 BLUE AND 0.0000
-1.0792 BY </s> -0.3010
-1.0792 BY AGENT -0.1919
-0.7782 BY ME 0.0000
-0.7782 BY SOMEONE 0.0000
-1.1461 CAN COLLECT -0.2304
-0.8451 CAN DO 0.0000
-1.1461 CAN PICK -0.2109
-1.1461 CAN PUT -0.2109
-1.1461 CAN THROW -0.2109
-1.1461 CAN TRASH -0.2518
-1.2041 CAN'T </s> -0.3010
-1.2041 CAN'T COLLECT -0.2304
-0.9031 CAN'T DO 0.0000
-1.2041 CAN'T PICK -0.2109
-1.2041 CAN'T PUT -0.2109
-1.2041 CAN'T THROW -0.2109
-1.2041 CAN'T TRASH -0.2518
-0.7782 CANCEL </s> -0.3010
-0.7782 CANCEL THAT -0.2133
-0.7782 CANCEL WHAT 0.0000
-0.5229 CHARGER </s> -0.3010
-0.6990 CHARGER AND 0.0000
-0.3010 CLAIMS </s> -0.3010
-0.3010 CLEAN UP -0.2762
-0.3010 CLEAR THE -0.2518
-1.3010 COLLECT ALL 0.0000
-1.3010 COLLECT EVERYTHING 0.0000
-1.3010 COLLECT IT -0.2767
-1.3010 COLLECT OBJECT -0.1584
-0.8239 COLLECT THAT -0.2133
-0.8239 COLLECT THIS -0.2118
-0.3010 CORINA </s> -0.3010
-0.3010 DID YOU -0.1478
-0.3010 DIDN'T YOU -0.1478
-0.3010 DO THAT -0.1431
-0.3010 DOES THIS -0.2948
-0.3010 DOESN'T BELONG 0.0000
-0.3010 DOING </s> -0.3010
-0.3010 DOSEN'T BELONG 0.0000
-0.3590 DOWN </s> -0.3010
-1.2041 DOWN WHAT 0.0000
-0.5643 EIGHT </s> -0.3010
-1.6435 EIGHT EIGHT -0.1627
-1.6435 EIGHT FIVE -0.1627
-1.6435 EIGHT FOUR -0.1627
-1.6435 EIGHT NINE -0.1627
-1.6435 EIGHT ONE -0.1627
-1.6435 EIGHT SEVEN -0.1627
-1.6435 EIGHT SIX -0.1627
-1.6435 EIGHT THREE -0.1627
-1.6435 EIGHT TWO -0.1627
-1.6435 EIGHT ZERO 0.0000
-0.3010 EVERYTHING </s> -0.3010
-0.3010 FIND OBJECT -0.1584
-0.5643 FIVE </s> -0.3010
-1.6435 FIVE EIGHT -0.1627
-1.6435 FIVE FIVE -0.1627
-1.6435 FIVE FOUR -0.1627
-1.6435 FIVE NINE -0.1627
-1.6435 FIVE ONE -0.1627
-1.6435 FIVE SEVEN -0.1627
-1.6435 FIVE SIX -0.1627
-1.6435 FIVE THREE -0.1627
-1.6435 FIVE TWO -0.1627
-1.6435 FIVE ZERO 0.0000
-0.3010 FOR OBJECTS 0.0000
-0.5643 FOUR </s> -0.3010
-1.6435 FOUR EIGHT -0.1627
-1.6435 FOUR FIVE -0.1627
-1.6435 FOUR FOUR -0.1627
-1.6435 FOUR NINE -0.1627
-1.6435 FOUR ONE -0.1627
-1.6435 FOUR SEVEN -0.1627
-1.6435 FOUR SIX -0.1627
-1.6435 FOUR THREE -0.1627
-1.6435 FOUR TWO -0.1627
-1.6435 FOUR ZERO 0.0000
-0.9031 GET IT -0.2767
-0.9031 GET OBJECT -0.1584
-0.9031 GET THAT -0.2133
-0.9031 GET THIS -0.2118
-0.6021 GO HOME -0.2632
-0.6021 GO TO -0.2940
-0.5229 GREEN </s> -0.3010
-0.6990 GREEN AND 0.0000
-0.3010 HOLDING </s> -0.3010
-1.0792 HOME </s> -0.3010
-0.4771 HOME AREA 0.0000
-1.0792 HOME POSITION 0.0000
-0.3010 I AM 0.0000
-0.7931 IF </s> -0.3010
-0.7102 IF IT -0.0658
-0.8414 IF IT'S 0.0000
-0.3010 IN THE -0.1326
-0.8451 IS MINE -0.0726
-1.1461 IS OBJECT -0.1584
-0.8451 IS THE -0.2688
-0.8451 IS THIS -0.2118
-0.7112 ISN'T A -0.0000
-1.5563 ISN'T BLUE 0.0000
-1.5563 ISN'T GREEN 0.0000
-1.2553 ISN'T IN 0.0000
-1.2553 ISN'T MINE 0.0000
-0.9542 ISN'T OWNED 0.0000
-1.5563 ISN'T RED 0.0000
-1.2632 IT </s> -0.3010
-2.0414 IT AWAY -0.0512
-1.2632 IT BELONGS 0.0000
-1.5643 IT DOESN'T 0.0000
-1.7404 IT DOSEN'T 0.0000
-2.0414 IT DOWN -0.0512
-0.4973 IT ISN'T 0.0000
-2.0414 IT UP -0.0872
-0.6864 IT'S A -0.0000
-1.5315 IT'S BLUE 0.0000
-1.5315 IT'S GREEN 0.0000
-1.2304 IT'S IN 0.0000
-1.5315 IT'S MINE 0.0000
-0.9294 IT'S OWNED 0.0000
-1.5315 IT'S RED 0.0000
-0.3010 JAKE </s> -0.3010
-0.5229 LAPTOP </s> -0.3010
-0.6990 LAPTOP AND 0.0000
-0.3010 LOOK AROUND 0.0000
-0.4771 ME </s> -0.3010
-0.7782 ME AND 0.0000
-0.3010 MEIYING </s> -0.3010
-0.3882 MINE </s> -0.3010
-1.0414 MINE AND 0.0000
-0.5229 MUG </s> -0.3010
-0.6990 MUG AND 0.0000
-0.3010 NICOLE </s> -0.3010
-0.5643 NINE </s> -0.3010
-1.6435 NINE EIGHT -0.1627
-1.6435 NINE FIVE -0.1627
-1.6435 NINE FOUR -0.1627
-1.6435 NINE NINE -0.1627
-1.6435 NINE ONE -0.1627
-1.6435 NINE SEVEN -0.1627
-1.6435 NINE SIX -0.1627
-1.6435 NINE THREE -0.1627
-1.6435 NINE TWO -0.1627
-1.6435 NINE ZERO 0.0000
-0.3010 NO BAXTER 0.0000
-0.5528 OBJECT </s> -0.3010
-1.6990 OBJECT EIGHT -0.1627
-1.6990 OBJECT FIVE -0.1627
-1.6990 OBJECT FOUR -0.1627
-1.6990 OBJECT IS -0.2341
-1.6990 OBJECT NINE -0.1627
-1.6990 OBJECT ONE -0.1627
-1.6990 OBJECT SEVEN -0.1627
-1.6990 OBJECT SIX -0.1627
-1.6990 OBJECT THREE -0.1627
-1.6990 OBJECT TWO -0.1627
-1.6990 OBJECT ZERO 0.0000
-0.3010 OBJECTS </s> -0.3010
-0.6021 OF OBJECT -0.1584
-0.6021 OF THIS -0.2118
-0.3010 OLIVIER </s> -0.3010
-0.5643 ONE </s> -0.3010
-1.6435 ONE EIGHT -0.1627
-1.6435 ONE FIVE -0.1627
-1.6435 ONE FOUR -0.1627
-1.6435 ONE NINE -0.1627
-1.6435 ONE ONE -0.1627
-1.6435 ONE SEVEN -0.1627
-1.6435 ONE SIX -0.1627
-1.6435 ONE THREE -0.1627
-1.6435 ONE TWO -0.1627
-1.6435 ONE ZERO 0.0000
-1.2041 OWNED </s> -0.3010
-1.2041 OWNED AND 0.0000
-0.4260 OWNED BY 0.0000
-0.3010 OWNER OF 0.0000
-0.6021 OWNS OBJECT -0.1584
-0.6021 OWNS THIS -0.2118
-0.5229 PEN </s> -0.3010
-0.6990 PEN AND 0.0000
-0.3010 PERMISSIONS </s> -0.3010
-1.2041 PICK IT -0.2971
-0.7270 PICK THAT -0.2848
-0.7270 PICK THIS -0.2820
-1.2041 PICK UP -0.2762
-0.3010 POSITION </s> -0.3010
-1.2041 PUT DOWN -0.2730
-1.2041 PUT IT -0.2971
-0.7270 PUT THAT -0.2848
-0.7270 PUT THIS -0.2820
-0.5229 RED </s> -0.3010
-0.6990 RED AND 0.0000
-0.9031 RELEASE IT -0.2767
-0.9031 RELEASE THAT -0.2133
-0.9031 RELEASE THIS -0.2118
-0.9031 RELEASE WHAT 0.0000
-0.9031 REPLACE IT -0.2767
-0.9031 REPLACE OBJECT -0.1584
-0.9031 REPLACE THAT -0.2133
-0.9031 REPLACE THIS -0.2118
-1.2041 RESET AGENTS 0.0000
-1.2041 RESET CLAIMS 0.0000
-1.2041 RESET EVERYTHING 0.0000
-1.2041 RESET OBJECTS 0.0000
-1.2041 RESET PERMISSIONS 0.0000
-1.2041 RESET RULES 0.0000
-0.9031 RESET YOUR 0.0000
-0.3010 RULES </s> -0.3010
-0.3010 SARAH </s> -0.3010
-0.6021 SCAN FOR 0.0000
-0.6021 SCAN THE -0.2518
-0.3010 SCAZ </s> -0.3010
-0.5643 SEVEN </s> -0.3010
-1.6435 SEVEN EIGHT -0.1627
-1.6435 SEVEN FIVE -0.1627
-1.6435 SEVEN FOUR -0.1627
-1.6435 SEVEN NINE -0.1627
-1.6435 SEVEN ONE -0.1627
-1.6435 SEVEN SEVEN -0.1627
-1.6435 SEVEN SIX -0.1627
-1.6435 SEVEN THREE -0.1627
-1.6435 SEVEN TWO -0.1627
-1.6435 SEVEN ZERO 0.0000
-0.5643 SIX </s> -0.3010
-1.6435 SIX EIGHT -0.1627
-1.6435 SIX FIVE -0.1627
-1.6435 SIX FOUR -0.1627
-1.6435 SIX NINE -0.1627
-1.6435 SIX ONE -0.1627
-1.6435 SIX SEVEN -0.1627
-1.6435 SIX SIX -0.1627
-1.6435 SIX THREE -0.1627
-1.6435 SIX TWO -0.1627
-1.6435 SIX ZERO 0.0000
-0.6021 SOMEONE </s> -0.3010
-0.6021 SOMEONE AND 0.0000
-0.6021 STOP </s> -0.3010
-1.0792 STOP IT -0.2767
-1.0792 STOP THAT -0.2133
-1.0792 STOP WHAT 0.0000
-0.7377 THAT </s> -0.3010
-1.3118 THAT ACTION 0.0000
-1.4367 THAT AWAY -0.0512
-1.4367 THAT BELONGS 0.0000
-1.4367 THAT DOESN'T 0.0000
-1.4367 THAT DOWN -0.0512
-1.6128 THAT IF -0.2248
-1.9138 THAT IS -0.2341
-1.3118 THAT TO -0.2076
-1.4367 THAT UP -0.0872
-0.3010 THAT'S MINE -0.0726
-0.7482 THE HOME -0.0669
-1.1461 THE OWNER 0.0000
-0.8451 THE TRASH -0.2341
-0.9700 THE WORKSPACE 0.0000
-0.7312 THIS </s> -0.3010
-1.3680 THIS AWAY -0.0512
-1.8451 THIS BELONG 0.0000
-1.3680 THIS BELONGS 0.0000
-1.3680 THIS DOESN'T 0.0000
-1.3680 THIS DOWN -0.0512
-1.8451 THIS IS -0.2341
-1.8451 THIS ISN'T -0.2762
-1.2430 THIS OBJECT -0.1584
-1.3680 THIS UP -0.0872
-0.5643 THREE </s> -0.3010
-1.6435 THREE EIGHT -0.1627
-1.6435 THREE FIVE -0.1627
-1.6435 THREE FOUR -0.1627
-1.6435 THREE NINE -0.1627
-1.6435 THREE ONE -0.1627
-1.6435 THREE SEVEN -0.1627
-1.6435 THREE SIX -0.1627
-1.6435 THREE THREE -0.1627
-1.6435 THREE TWO -0.1627
-1.6435 THREE ZERO 0.0000
-1.2041 THROW AWAY -0.2730
-1.2041 THROW IT -0.2971
-0.7270 THROW THAT -0.2848
-0.7270 THROW THIS -0.2820
-0.8893 TO </s> -0.3010
-1.0142 TO AGENT -0.1919
-0.8893 TO ME 0.0000
-1.1903 TO SOMEONE 0.0000
-1.7924 TO THE -0.2156
-1.1903 TO THIS -0.2755
-1.4472 TRASH ALL 0.0000
-0.8451 TRASH AREA 0.0000
-1.4472 TRASH EVERYTHING 0.0000
-1.4472 TRASH IT -0.2767
-1.4472 TRASH OBJECT -0.1584
-0.9700 TRASH THAT -0.2133
-0.9700 TRASH THIS -0.2118
-0.5643 TWO </s> -0.3010
-1.6435 TWO EIGHT -0.1627
-1.6435 TWO FIVE -0.1627
-1.6435 TWO FOUR -0.1627
-1.6435 TWO NINE -0.1627
-1.6435 TWO ONE -0.1627
-1.6435 TWO SEVEN -0.1627
-1.6435 TWO SIX -0.1627
-1.6435 TWO THREE -0.1627
-1.6435 TWO TWO -0.1627
-1.6435 TWO ZERO 0.0000
-0.4102 UP </s> -0.3010
-1.2553 UP OBJECT -0.1584
-1.2553 UP THE -0.2518
-0.5229 WALLET </s> -0.3010
-0.6990 WALLET AND 0.0000
-0.3010 WHAT YOU'RE 0.0000
-1.0000 WHO DOES 0.0000
-0.6990 WHO IS -0.2341
-0.6990 WHO OWNS 0.0000
-0.4771 WHOSE IS -0.1963
-0.7782 WHOSE OBJECT -0.2923
-0.6021 WHY DID 0.0000
-0.6021 WHY DIDN'T 0.0000
-0.3010 WORKSPACE </s> -0.3010
-0.5229 WRAPPER </s> -0.3010
-0.6990 WRAPPER AND 0.0000
-0.3010 XUAN </s> -0.3010
-1.5682 YOU </s> -0.3010
-1.0241 YOU CAN -0.0000
-0.9661 YOU CAN'T 0.0000
-1.5682 YOU COLLECT -0.2304
-0.8692 YOU DO 0.0000
-1.5682 YOU PICK -0.2109
-1.5682 YOU PUT -0.2109
-1.5682 YOU THROW -0.2109
-1.5682 YOU TRASH -0.2518
-0.6021 YOU'RE DOING 0.0000
-0.6021 YOU'RE HOLDING 0.0000
-0.6021 YOUR ARM 0.0000
-0.6021 YOUR POSITION 0.0000
-0.3010 ZERO </s> -0.3010

\3-grams:
-0.3010 <s> ADITI </s>
-1.3010 <s> AGENT EIGHT
-1.3010 <s> AGENT FIVE
-1.3010 <s> AGENT FOUR
-1.3010 <s> AGENT NINE
-1.3010 <s> AGENT ONE
-1.3010 <s> AGENT SEVEN
-1.3010 <s> AGENT SIX
-1.3010 <s> AGENT THREE
-1.3010 <s> AGENT TWO
-1.3010 <s> AGENT ZERO
-0.3010 <s> ALESSANDRO </s>
-0.7782 <s> BAXTER </s>
-0.7782 <s> BAXTER STOP
-0.7782 <s> BAXTER THAT'S
-0.3010 <s> BLOCK </s>
-0.3010 <s> BLUE </s>
-0.7782 <s> CANCEL </s>
-0.7782 <s> CANCEL THAT
-0.7782 <s> CANCEL WHAT
-0.3010 <s> CHARGER </s>
-0.3010 <s> CLEAN UP
-0.3010 <s> CLEAR THE
-1.0792 <s> COLLECT ALL
-1.0792 <s> COLLECT EVERYTHING
-1.0792 <s> COLLECT IT
-1.0792 <s> COLLECT OBJECT
-1.0792 <s> COLLECT THAT
-1.0792 <s> COLLECT THIS
-0.3010 <s> CORINA </s>
-1.3424 <s> EIGHT </s>
-1.3424 <s> EIGHT EIGHT
-1.3424 <s> EIGHT FIVE
-1.3424 <s> EIGHT FOUR
-1.3424 <s> EIGHT NINE
-1.3424 <s> EIGHT ONE
-1.3424 <s> EIGHT SEVEN
-1.3424 <s> EIGHT SIX
-1.3424 <s> EIGHT THREE
-1.3424 <s> EIGHT TWO
-1.3424 <s> EIGHT ZERO
-0.3010 <s> FIND OBJECT
-1.3424 <s> FIVE </s>
-1.3424 <s> FIVE EIGHT
-1.3424 <s> FIVE FIVE
-1.3424 <s> FIVE FOUR
-1.3424 <s> FIVE NINE
-1.3424 <s> FIVE ONE
-1.3424 <s> FIVE SEVEN
-1.3424 <s> FIVE SIX
-1.3424 <s> FIVE THREE
-1.3424 <s> FIVE TWO
-1.3424 <s> FIVE ZERO
-1.3424 <s> FOUR </s>
-1.3424 <s> FOUR EIGHT
-1.3424 <s> FOUR FIVE
-1.3424 <s> FOUR FOUR
-1.3424 <s> FOUR NINE
-1.3424 <s> FOUR ONE
-1.3424 <s> FOUR SEVEN
-1.3424 <s> FOUR SIX
-1.3424 <s> FOUR THREE
-1.3424 <s> FOUR TWO
-1.3424 <s> FOUR ZERO
-0.9031 <s> GET IT
-0.9031 <s> GET OBJECT
-0.9031 <s> GET THAT
-0.9031 <s> GET THIS
-0.6021 <s> GO HOME
-0.6021 <s> GO TO
-0.3010 <s> GREEN </s>
-0.3010 <s> I AM
-0.5414 <s> IF IT
-0.6726 <s> IF IT'S
-0.3010 <s> JAKE </s>
-0.3010 <s> LAPTOP </s>
-0.3010 <s> LOOK AROUND
-0.3010 <s> MEIYING </s>
-0.3010 <s> MUG </s>
-0.3010 <s> NICOLE </s>
-1.3424 <s> NINE </s>
-1.3424 <s> NINE EIGHT
-1.3424 <s> NINE FIVE
-1.3424 <s> NINE FOUR
-1.3424 <s> NINE NINE
-1.3424 <s> NINE ONE
-1.3424 <s> NINE SEVEN
-1.3424 <s> NINE SIX
-1.3424 <s> NINE THREE
-1.3424 <s> NINE TWO
-1.3424 <s> NINE ZERO
-0.3010 <s> NO BAXTER
-1.3010 <s> OBJECT EIGHT
-1.3010 <s> OBJECT FIVE
-1.3010 <s> OBJECT FOUR
-1.3010 <s> OBJECT NINE
-1.3010 <s> OBJECT ONE
-1.3010 <s> OBJECT SEVEN
-1.3010 <s> OBJECT SIX
-1.3010 <s> OBJECT THREE
-1.3010 <s> OBJECT TWO
-1.3010 <s> OBJECT ZERO
-0.3010 <s> OLIVIER </s>
-1.3424 <s> ONE </s>
-1.3424 <s> ONE EIGHT
-1.3424 <s> ONE FIVE
-1.3424 <s> ONE FOUR
-1.3424 <s> ONE NINE
-1.3424 <s> ONE ONE
-1.3424 <s> ONE SEVEN
-1.3424 <s> ONE SIX
-1.3424 <s> ONE THREE
-1.3424 <s> ONE TWO
-1.3424 <s> ONE ZERO
-0.3010 <s> PEN </s>
-0.9031 <s> PICK IT
-0.9031 <s> PICK THAT
-0.9031 <s> PICK THIS
-0.9031 <s> PICK UP
-0.9031 <s> PUT DOWN
-0.9031 <s> PUT IT
-0.9031 <s> PUT THAT
-0.9031 <s> PUT THIS
-0.3010 <s> RED </s>
-0.9031 <s> RELEASE IT
-0.9031 <s> RELEASE THAT
-0.9031 <s> RELEASE THIS
-0.9031 <s> RELEASE WHAT
-0.9031 <s> REPLACE IT
-0.9031 <s> REPLACE OBJECT
-0.9031 <s> REPLACE THAT
-0.9031 <s> REPLACE THIS
-1.2041 <s> RESET AGENTS
-1.2041 <s> RESET CLAIMS
-1.2041 <s> RESET EVERYTHING
-1.2041 <s> RESET OBJECTS
-1.2041 <s> RESET PERMISSIONS
-1.2041 <s> RESET RULES
-0.9031 <s> RESET YOUR
-0.3010 <s> SARAH </s>
-0.6021 <s> SCAN FOR
-0.6021 <s> SCAN THE
-0.3010 <s> SCAZ </s>
-1.3424 <s> SEVEN </s>
-1.3424 <s> SEVEN EIGHT
-1.3424 <s> SEVEN FIVE
-1.3424 <s> SEVEN FOUR
-1.3424 <s> SEVEN NINE
-1.3424 <s> SEVEN ONE
-1.3424 <s> SEVEN SEVEN
-1.3424 <s> SEVEN SIX
-1.3424 <s> SEVEN THREE
-1.3424 <s> SEVEN TWO
-1.3424 <s> SEVEN ZERO
-1.3424 <s> SIX </s>
-1.3424 <s> SIX EIGHT
-1.3424 <s> SIX FIVE
-1.3424 <s> SIX FOUR
-1.3424 <s> SIX NINE
-1.3424 <s> SIX ONE
-1.3424 <s> SIX SEVEN
-1.3424 <s> SIX SIX
-1.3424 <s> SIX THREE
-1.3424 <s> SIX TWO
-1.3424 <s> SIX ZERO
-0.9031 <s> STOP </s>
-0.9031 <s> STOP IT
-0.9031 <s> STOP THAT
-0.9031 <s> STOP WHAT
-0.6690 <s> THAT BELONGS
-0.6690 <s> THAT DOESN'T
-1.1461 <s> THAT IS
-0.3010 <s> THAT'S MINE
-0.7270 <s> THIS BELONGS
-0.7270 <s> THIS DOESN'T
-1.2041 <s> THIS IS
-1.2041 <s> THIS ISN'T
-1.3424 <s> THREE </s>
-1.3424 <s> THREE EIGHT
-1.3424 <s> THREE FIVE
-1.3424 <s> THREE FOUR
-1.3424 <s> THREE NINE
-1.3424 <s> THREE ONE
-1.3424 <s> THREE SEVEN
-1.3424 <s> THREE SIX
-1.3424 <s> THREE THREE
-1.3424 <s> THREE TWO
-1.3424 <s> THREE ZERO
-0.9031 <s> THROW AWAY
-0.9031 <s> THROW IT
-0.9031 <s> THROW THAT
-0.9031 <s> THROW THIS
-1.0792 <s> TRASH ALL
-1.0792 <s> TRASH EVERYTHING
-1.0792 <s> TRASH IT
-1.0792 <s> TRASH OBJECT
-1.0792 <s> TRASH THAT
-1.0792 <s> TRASH THIS
-1.3424 <s> TWO </s>
-1.3424 <s> TWO EIGHT
-1.3424 <s> TWO FIVE
-1.3424 <s> TWO FOUR
-1.3424 <s> TWO NINE
-1.3424 <s> TWO ONE
-1.3424 <s> TWO SEVEN
-1.3424 <s> TWO SIX
-1.3424 <s> TWO THREE
-1.3424 <s> TWO TWO
-1.3424 <s> TWO ZERO
-0.3010 <s> WALLET </s>
-1.0000 <s> WHO DOES
-0.6990 <s> WHO IS
-0.6990 <s> WHO OWNS
-0.4771 <s> WHOSE IS
-0.7782 <s> WHOSE OBJECT
-0.6021 <s> WHY DID
-0.6021 <s> WHY DIDN'T
-0.3010 <s> WRAPPER </s>
-0.3010 <s> XUAN </s>
-0.6320 <s> YOU CAN
-0.5740 <s> YOU CAN'T
-0.3010 <s> ZERO </s>
-0.6021 A BLOCK </s>
-0.6021 A BLOCK AND
-0.6021 A CHARGER </s>
-0.6021 A CHARGER AND
-0.6021 A LAPTOP </s>
-0.6021 A LAPTOP AND
-0.6021 A MUG </s>
-0.6021 A MUG AND
-0.6021 A PEN </s>
-0.6021 A PEN AND
-0.6021 A WALLET </s>
-0.6021 A WALLET AND
-0.6021 A WRAPPER </s>
-0.6021 A WRAPPER AND
-0.3010 ACTION TO THIS
-0.3010 AGENT EIGHT </s>
-0.3010 AGENT FIVE </s>
-0.3010 AGENT FOUR </s>
-0.3010 AGENT NINE </s>
-0.3010 AGENT ONE </s>
-0.3010 AGENT SEVEN </s>
-0.3010 AGENT SIX </s>
-0.3010 AGENT THREE </s>
-0.3010 AGENT TWO </s>
-0.3010 AGENT ZERO </s>
-0.3010 ALL OBJECTS </s>
-0.3010 AM ADITI </s>
-0.3010 AM ALESSANDRO </s>
-0.3010 AM CORINA </s>
-0.3010 AM JAKE </s>
-0.3010 AM MEIYING </s>
-0.3010 AM NICOLE </s>
-0.3010 AM OLIVIER </s>
-0.3010 AM SARAH </s>
-0.3010 AM SCAZ </s>
-0.3010 AM XUAN </s>
-0.3010 AND IF </s>
-0.3010 AREA AND IF
-0.3010 AWAY OBJECT </s>
-0.3010 BAXTER STOP </s>
-0.3010 BAXTER THAT'S MINE
-0.9031 BELONG TO </s>
-0.9031 BELONG TO AGENT
-0.7782 BELONG TO ME
-1.0792 BELONG TO SOMEONE
-0.9031 BELONGS TO </s>
-0.9031 BELONGS TO AGENT
-0.7782 BELONGS TO ME
-1.0792 BELONGS TO SOMEONE
-0.3010 BLOCK AND IF
-0.3010 BLUE AND IF
-0.3010 BY AGENT </s>
-0.6021 BY ME </s>
-0.6021 BY ME AND
-0.6021 BY SOMEONE </s>
-0.6021 BY SOMEONE AND
-0.3010 CAN COLLECT THIS
-0.3010 CAN DO THAT
-0.3010 CAN PICK THIS
-0.3010 CAN PUT THIS
-0.3010 CAN THROW THIS
-0.3010 CAN TRASH THIS
-0.3010 CAN'T COLLECT THIS
-0.3010 CAN'T DO THAT
-0.3010 CAN'T PICK THIS
-0.3010 CAN'T PUT THIS
-0.3010 CAN'T THROW THIS
-0.3010 CAN'T TRASH THIS
-0.3010 CANCEL THAT </s>
-0.3010 CANCEL WHAT YOU'RE
-0.3010 CHARGER AND IF
-0.3010 CLEAN UP THE
-0.3010 CLEAR THE WORKSPACE
-0.3010 COLLECT ALL OBJECTS
-0.3010 COLLECT EVERYTHING </s>
-0.3010 COLLECT IT </s>
-0.3010 COLLECT OBJECT </s>
-0.3010 COLLECT THAT </s>
-0.3010 COLLECT THIS </s>
-1.3424 DID YOU </s>
-1.3424 DID YOU COLLECT
-0.6435 DID YOU DO
-1.3424 DID YOU PICK
-1.3424 DID YOU PUT
-1.3424 DID YOU THROW
-1.3424 DID YOU TRASH
-1.3424 DIDN'T YOU </s>
-1.3424 DIDN'T YOU COLLECT
-0.6435 DIDN'T YOU DO
-1.3424 DIDN'T YOU PICK
-1.3424 DIDN'T YOU PUT
-1.3424 DIDN'T YOU THROW
-1.3424 DIDN'T YOU TRASH
-0.8451 DO THAT </s>
-0.8451 DO THAT ACTION
-1.1461 DO THAT IF
-0.8451 DO THAT TO
-0.3010 DOES THIS BELONG
-0.3010 DOESN'T BELONG TO
-0.3010 DOSEN'T BELONG TO
-0.3010 DOWN WHAT YOU'RE
-0.3010 EIGHT EIGHT </s>
-0.3010 EIGHT FIVE </s>
-0.3010 EIGHT FOUR </s>
-0.3010 EIGHT NINE </s>
-0.3010 EIGHT ONE </s>
-0.3010 EIGHT SEVEN </s>
-0.3010 EIGHT SIX </s>
-0.3010 EIGHT THREE </s>
-0.3010 EIGHT TWO </s>
-0.3010 EIGHT ZERO </s>
-0.3010 FIND OBJECT </s>
-0.3010 FIVE EIGHT </s>
-0.3010 FIVE FIVE </s>
-0.3010 FIVE FOUR </s>
-0.3010 FIVE NINE </s>
-0.3010 FIVE ONE </s>
-0.3010 FIVE SEVEN </s>
-0.3010 FIVE SIX </s>
-0.3010 FIVE THREE </s>
-0.3010 FIVE TWO </s>
-0.3010 FIVE ZERO </s>
-0.3010 FOR OBJECTS </s>
-0.3010 FOUR EIGHT </s>
-0.3010 FOUR FIVE </s>
-0.3010 FOUR FOUR </s>
-0.3010 FOUR NINE </s>
-0.3010 FOUR ONE </s>
-0.3010 FOUR SEVEN </s>
-0.3010 FOUR SIX </s>
-0.3010 FOUR THREE </s>
-0.3010 FOUR TWO </s>
-0.3010 FOUR ZERO </s>
-0.3010 GET IT </s>
-0.3010 GET OBJECT </s>
-0.3010 GET THAT </s>
-0.3010 GET THIS </s>
-0.3010 GO HOME </s>
-0.3010 GO TO THE
-0.3010 GREEN AND IF
-0.6021 HOME AREA </s>
-0.6021 HOME AREA AND
-0.3010 HOME POSITION </s>
-1.3010 I AM ADITI
-1.3010 I AM ALESSANDRO
-1.3010 I AM CORINA
-1.3010 I AM JAKE
-1.3010 I AM MEIYING
-1.3010 I AM NICOLE
-1.3010 I AM OLIVIER
-1.3010 I AM SARAH
-1.3010 I AM SCAZ
-1.3010 I AM XUAN
-1.1856 IF IT BELONGS
-1.4867 IF IT DOESN'T
-1.6628 IF IT DOSEN'T
-0.4197 IF IT ISN'T
-0.6864 IF IT'S A
-1.5315 IF IT'S BLUE
-1.5315 IF IT'S GREEN
-1.2304 IF IT'S IN
-1.5315 IF IT'S MINE
-0.9294 IF IT'S OWNED
-1.5315 IF IT'S RED
-0.6021 IN THE HOME
-0.6021 IN THE TRASH
-0.3010 IS MINE </s>
-0.3010 IS OBJECT </s>
-0.3010 IS THE OWNER
-0.3010 IS THIS </s>
-1.1461 ISN'T A BLOCK
-1.1461 ISN'T A CHARGER
-1.1461 ISN'T A LAPTOP
-1.1461 ISN'T A MUG
-1.1461 ISN'T A PEN
-1.1461 ISN'T A WALLET
-1.1461 ISN'T A WRAPPER
-0.6021 ISN'T BLUE </s>
-0.6021 ISN'T BLUE AND
-0.6021 ISN'T GREEN </s>
-0.6021 ISN'T GREEN AND
-0.3010 ISN'T IN THE
-0.4260 ISN'T MINE </s>
-0.9031 ISN'T MINE AND
-1.2041 ISN'T OWNED </s>
-1.2041 ISN'T OWNED AND
-0.4260 ISN'T OWNED BY
-0.6021 ISN'T RED </s>
-0.6021 ISN'T RED AND
-0.3010 IT AWAY </s>
-0.3010 IT BELONGS TO
-0.3010 IT DOESN'T BELONG
-0.3010 IT DOSEN'T BELONG
-0.3010 IT DOWN </s>
-0.6990 IT ISN'T A
-1.5441 IT ISN'T BLUE
-1.5441 IT ISN'T GREEN
-1.2430 IT ISN'T IN
-1.3680 IT ISN'T MINE
-0.9420 IT ISN'T OWNED
-1.5441 IT ISN'T RED
-0.3010 IT UP </s>
-1.1461 IT'S A BLOCK
-1.1461 IT'S A CHARGER
-1.1461 IT'S A LAPTOP
-1.1461 IT'S A MUG
-1.1461 IT'S A PEN
-1.1461 IT'S A WALLET
-1.1461 IT'S A WRAPPER
-0.6021 IT'S BLUE </s>
-0.6021 IT'S BLUE AND
-0.6021 IT'S GREEN </s>
-0.6021 IT'S GREEN AND
-0.3010 IT'S IN THE
-0.6021 IT'S MINE </s>
-0.6021 IT'S MINE AND
-1.2041 IT'S OWNED </s>
-1.2041 IT'S OWNED AND
-0.4260 IT'S OWNED BY
-0.6021 IT'S RED </s>
-0.6021 IT'S RED AND
-0.3010 LAPTOP AND IF
-0.3010 LOOK AROUND </s>
-0.3010 ME AND IF
-0.3010 MINE AND IF
-0.3010 MUG AND IF
-0.3010 NINE EIGHT </s>
-0.3010 NINE FIVE </s>
-0.3010 NINE FOUR </s>
-0.3010 NINE NINE </s>
-0.3010 NINE ONE </s>
-0.3010 NINE SEVEN </s>
-0.3010 NINE SIX </s>
-0.3010 NINE THREE </s>
-0.3010 NINE TWO </s>
-0.3010 NINE ZERO </s>
-0.7782 NO BAXTER </s>
-0.7782 NO BAXTER STOP
-0.7782 NO BAXTER THAT'S
-0.3010 OBJECT EIGHT </s>
-0.3010 OBJECT FIVE </s>
-0.3010 OBJECT FOUR </s>
-0.3010 OBJECT IS THIS
-0.3010 OBJECT NINE </s>
-0.3010 OBJECT ONE </s>
-0.3010 OBJECT SEVEN </s>
-0.3010 OBJECT SIX </s>
-0.3010 OBJECT THREE </s>
-0.3010 OBJECT TWO </s>
-0.3010 OBJECT ZERO </s>
-0.3010 OF OBJECT </s>
-0.3010 OF THIS </s>
-0.3010 ONE EIGHT </s>
-0.3010 ONE FIVE </s>
-0.3010 ONE FOUR </s>
-0.3010 ONE NINE </s>
-0.3010 ONE ONE </s>
-0.3010 ONE SEVEN </s>
-0.3010 ONE SIX </s>
-0.3010 ONE THREE </s>
-0.3010 ONE TWO </s>
-0.3010 ONE ZERO </s>
-0.3010 OWNED AND IF
-1.0792 OWNED BY </s>
-1.0792 OWNED BY AGENT
-0.7782 OWNED BY ME
-0.7782 OWNED BY SOMEONE
-0.6021 OWNER OF OBJECT
-0.6021 OWNER OF THIS
-0.3010 OWNS OBJECT </s>
-0.3010 OWNS THIS </s>
-0.3010 PEN AND IF
-0.3010 PICK IT UP
-0.3010 PICK THAT UP
-0.3010 PICK THIS UP
-0.3010 PICK UP OBJECT
-0.3010 PUT DOWN WHAT
-0.3010 PUT IT DOWN
-0.3010 PUT THAT DOWN
-0.3010 PUT THIS DOWN
-0.3010 RED AND IF
-0.3010 RELEASE IT </s>
-0.3010 RELEASE THAT </s>
-0.3010 RELEASE THIS </s>
-0.3010 RELEASE WHAT YOU'RE
-0.3010 REPLACE IT </s>
-0.3010 REPLACE OBJECT </s>
-0.3010 REPLACE THAT </s>
-0.3010 REPLACE THIS </s>
-0.3010 RESET AGENTS </s>
-0.3010 RESET CLAIMS </s>
-0.3010 RESET EVERYTHING </s>
-0.3010 RESET OBJECTS </s>
-0.3010 RESET PERMISSIONS </s>
-0.3010 RESET RULES </s>
-0.6021 RESET YOUR ARM
-0.6021 RESET YOUR POSITION
-0.3010 SCAN FOR OBJECTS
-0.3010 SCAN THE WORKSPACE
-0.3010 SEVEN EIGHT </s>
-0.3010 SEVEN FIVE </s>
-0.3010 SEVEN FOUR </s>
-0.3010 SEVEN NINE </s>
-0.3010 SEVEN ONE </s>
-0.3010 SEVEN SEVEN </s>
-0.3010 SEVEN SIX </s>
-0.3010 SEVEN THREE </s>
-0.3010 SEVEN TWO </s>
-0.3010 SEVEN ZERO </s>
-0.3010 SIX EIGHT </s>
-0.3010 SIX FIVE </s>
-0.3010 SIX FOUR </s>
-0.3010 SIX NINE </s>
-0.3010 SIX ONE </s>
-0.3010 SIX SEVEN </s>
-0.3010 SIX SIX </s>
-0.3010 SIX THREE </s>
-0.3010 SIX TWO </s>
-0.3010 SIX ZERO </s>
-0.3010 SOMEONE AND IF
-0.3010 STOP IT </s>
-0.3010 STOP THAT </s>
-0.3010 STOP WHAT YOU'RE
-0.6021 THAT ACTION </s>
-0.6021 THAT ACTION TO
-0.3010 THAT AWAY </s>
-0.3010 THAT BELONGS TO
-0.3010 THAT DOESN'T BELONG
-0.3010 THAT DOWN </s>
-0.3010 THAT IF </s>
-0.3010 THAT IS MINE
-0.6021 THAT TO </s>
-0.6021 THAT TO THIS
-0.3010 THAT UP </s>
-0.3010 THAT'S MINE </s>
-0.3979 THE HOME AREA
-1.0000 THE HOME POSITION
-0.3010 THE OWNER OF
-0.3010 THE TRASH AREA
-0.3010 THE WORKSPACE </s>
-0.3010 THIS AWAY </s>
-0.3010 THIS BELONG TO
-0.3010 THIS BELONGS TO
-0.3010 THIS DOESN'T BELONG
-0.3010 THIS DOWN </s>
-0.3010 THIS IS MINE
-0.3010 THIS ISN'T MINE
-0.3010 THIS OBJECT </s>
-0.3010 THIS UP </s>
-0.3010 THREE EIGHT </s>
-0.3010 THREE FIVE </s>
-0.3010 THREE FOUR </s>
-0.3010 THREE NINE </s>
-0.3010 THREE ONE </s>
-0.3010 THREE SEVEN </s>
-0.3010 THREE SIX </s>
-0.3010 THREE THREE </s>
-0.3010 THREE TWO </s>
-0.3010 THREE ZERO </s>
-0.3010 THROW AWAY OBJECT
-0.3010 THROW IT AWAY
-0.3010 THROW THAT AWAY
-0.3010 THROW THIS AWAY
-0.3010 TO AGENT </s>
-0.4260 TO ME </s>
-0.9031 TO ME AND
-0.6021 TO SOMEONE </s>
-0.6021 TO SOMEONE AND
-0.3010 TO THE HOME
-0.3010 TO THIS OBJECT
-0.3010 TRASH ALL OBJECTS
-0.6021 TRASH AREA </s>
-0.6021 TRASH AREA AND
-0.3010 TRASH EVERYTHING </s>
-0.3010 TRASH IT </s>
-0.3010 TRASH OBJECT </s>
-0.3010 TRASH THAT </s>
-0.3010 TRASH THIS </s>
-0.3010 TWO EIGHT </s>
-0.3010 TWO FIVE </s>
-0.3010 TWO FOUR </s>
-0.3010 TWO NINE </s>
-0.3010 TWO ONE </s>
-0.3010 TWO SEVEN </s>
-0.3010 TWO SIX </s>
-0.3010 TWO THREE </s>
-0.3010 TWO TWO </s>
-0.3010 TWO ZERO </s>
-0.3010 UP OBJECT </s>
-0.3010 UP THE WORKSPACE
-0.3010 WALLET AND IF
-0.6021 WHAT YOU'RE DOING
-0.6021 WHAT YOU'RE HOLDING
-0.3010 WHO DOES THIS
-0.3010 WHO IS THE
-0.6021 WHO OWNS OBJECT
-0.6021 WHO OWNS THIS
-0.6021 WHOSE IS OBJECT
-0.6021 WHOSE IS THIS
-0.3010 WHOSE OBJECT IS
-0.3010 WHY DID YOU
-0.3010 WHY DIDN'T YOU
-0.3010 WRAPPER AND IF
-1.1461 YOU CAN COLLECT
-0.8451 YOU CAN DO
-1.1461 YOU CAN PICK
-1.1461 YOU CAN PUT
-1.1461 YOU CAN THROW
-1.1461 YOU CAN TRASH
-1.2041 YOU CAN'T </s>
-1.2041 YOU CAN'T COLLECT
-0.9031 YOU CAN'T DO
-1.2041 YOU CAN'T PICK
-1.2041 YOU CAN'T PUT
-1.2041 YOU CAN'T THROW
-1.2041 YOU CAN'T TRASH
-0.3010 YOU COLLECT THAT
-0.3010 YOU DO THAT
-0.3010 YOU PICK THAT
-0.3010 YOU PUT THAT
-0.3010 YOU THROW THAT
-0.3010 YOU TRASH THAT
-0.3010 YOU'RE DOING </s>
-0.3010 YOU'RE HOLDING </s>
-0.3010 YOUR ARM </s>
-0.3010 YOUR POSITION </s>

\end\
